"[-2.0197574e-02 -4.9880520e-03 -4.2374738e-02 -2.4984378e-02
  5.5874959e-03  7.2982185e-02  5.1036902e-02 -4.4587128e-02
 -5.5027202e-02 -2.6844744e-02  6.5041713e-02 -8.0607831e-05
 -2.4185132e-02  5.0195225e-02  6.2299915e-02 -2.1916181e-03
 -6.4137220e-02  3.4261882e-02  4.6205930e-02 -6.8533219e-02
  2.9491760e-02  2.1870233e-02 -7.1414337e-03 -2.6566338e-02
  2.4982497e-02 -1.5761606e-02  2.3027271e-02 -4.0318988e-02
  1.8800475e-02 -6.7983910e-02 -4.0389452e-02 -3.7598535e-02
 -6.7895435e-02  4.1814864e-02 -2.3282938e-02  5.6695916e-02
 -5.0810728e-02  6.5865614e-02 -6.8424307e-02 -7.4082516e-02
 -3.2721173e-02 -2.1558776e-02 -2.0750187e-02  1.8059246e-02
 -2.4511244e-02 -7.1817808e-02 -2.1538537e-02  3.6965020e-02
 -5.0984032e-02  3.5585493e-02]","[ 3.8607314e-02 -1.7674111e-02  5.9515089e-03  5.2590571e-02
  4.3090746e-02  1.7635934e-02  5.9091277e-02 -6.6997111e-02
  3.4134753e-02 -6.8217516e-05 -4.4096336e-03 -7.4935637e-02
  3.5916224e-02 -3.9724950e-02  7.1954392e-02 -1.2583435e-03
  3.0019969e-02  4.2900965e-02 -5.9587412e-02  6.4059831e-02
 -3.7570629e-02 -3.3487715e-02  6.9934390e-02  1.1705935e-02
 -3.6016777e-03  8.7348148e-03 -1.7102443e-02 -2.9158145e-02
  3.3748560e-02  4.1998476e-03 -3.5977487e-02 -3.8424879e-03
  4.3342523e-02 -6.9587164e-02  2.2826560e-02 -4.1636594e-02
  4.6796612e-02 -2.7646050e-03  4.3136172e-02  5.8153830e-02
  1.6951002e-02  3.3203468e-02 -3.6930472e-02 -4.3551415e-02
  1.4144741e-02 -6.0844518e-02  7.2102524e-02 -2.4430271e-02
  3.8274176e-02  4.3961972e-02]","[ 0.04847632 -0.03100061 -0.00682232  0.01320732 -0.05807906  0.02370136
  0.06022074 -0.07517327  0.05358554  0.01509426 -0.00755446 -0.0110666
 -0.06974506 -0.00965716  0.00294428  0.05121871 -0.02466394 -0.00421264
 -0.0617913   0.02198058 -0.06472451  0.01994768  0.0402582  -0.00432876
 -0.0570441   0.02019338 -0.03223674 -0.01693221  0.07559817 -0.02409525
  0.00359216  0.04503327  0.05287632  0.00694828  0.0237681  -0.02228402
  0.04075667 -0.05862976  0.03011213  0.0462596   0.05248646 -0.02571145
  0.04389912  0.05066391  0.04824357 -0.00205245  0.02353121 -0.03851867
 -0.01964244 -0.04973786]","[ 0.02330378  0.05924197  0.04289961  0.00153621  0.01538423  0.04195207
 -0.03759196 -0.04069671 -0.03098726  0.04610222  0.05319817  0.01665473
 -0.02582102  0.00824425  0.02862289  0.03255705  0.06747328 -0.05395946
 -0.0709495   0.04309841 -0.00678778 -0.0337292  -0.00284424 -0.07361765
 -0.04071155  0.02044962  0.05562573 -0.04622     0.0649096   0.07237735
 -0.01840059 -0.06982253  0.00447273 -0.06218596 -0.04612145 -0.06531502
  0.00248557 -0.04166757  0.06184185 -0.05711857 -0.05545235  0.05718481
 -0.03232016  0.07170021  0.07206977  0.01276843 -0.03373305 -0.03687775
 -0.01815232  0.04268988]","[ 0.04206286 -0.00126395  0.07431727  0.00565049  0.05016517  0.04654396
  0.03745005  0.06943434 -0.05650579 -0.06915642  0.05986326  0.05512158
 -0.04337873 -0.05677883 -0.07010014 -0.02883787 -0.03867511 -0.05826247
 -0.04135894 -0.05144114 -0.01244735  0.02154027  0.00599772  0.02733926
  0.01811398  0.05191294  0.05363909 -0.0542692   0.01653177  0.07381953
 -0.03704607  0.02107581  0.03265554  0.02765036  0.0545206  -0.06557515
 -0.04125349  0.06921843 -0.0558822  -0.00068542  0.04170567  0.01254714
 -0.01840421 -0.0057101   0.01398921 -0.05999118 -0.07615305  0.0163192
 -0.07250072  0.06231349]","[ 0.06409333  0.00622334  0.04351422  0.01914005 -0.03052807 -0.012617
 -0.0681659  -0.00837832  0.00034487  0.01824339  0.05698708 -0.00410007
 -0.00199151  0.03212862  0.03794289  0.07327882  0.07301817 -0.00193375
 -0.04448308 -0.04700512  0.00561429 -0.06647956 -0.00068343 -0.07248908
 -0.04309481  0.03691839 -0.00622373 -0.02678068 -0.00147492  0.03965184
  0.00360232 -0.036065   -0.00793134 -0.00241398 -0.00721648 -0.02803748
 -0.05823143 -0.03847001  0.01026163 -0.012839    0.01546721 -0.02174516
  0.00877566  0.02831107 -0.07514703 -0.04723071  0.02181025 -0.02407171
 -0.06450772  0.00203549]","[-0.04854885 -0.02310739  0.05700462 -0.02634859 -0.01735641 -0.02105978
  0.05163766 -0.00950336 -0.04771927  0.04388619  0.00625045 -0.05649194
 -0.06342658 -0.04756425 -0.03809092 -0.02556344 -0.04296584 -0.01664311
 -0.01615634  0.04235444 -0.06085122  0.0001158   0.03702795 -0.03745056
 -0.05381162  0.03913447  0.03902876 -0.06140357 -0.01096526 -0.02294847
  0.0260845   0.05893945  0.00362641  0.05083188  0.0202665   0.04347383
  0.02462287  0.04435876 -0.03163485  0.07334178  0.03089894 -0.047564
 -0.0182036   0.01232348  0.06202731 -0.01519868 -0.00419217  0.04406663
 -0.00314643 -0.03042122]","[-0.07264727 -0.03006393  0.05466352  0.05055874  0.02729871 -0.03661874
  0.0364646  -0.06072763 -0.0024284  -0.0477444   0.07639568 -0.04165627
  0.03705639 -0.03892866 -0.00672679 -0.0219202   0.02564234 -0.01387955
  0.02173655  0.05893905 -0.05124817  0.05484935 -0.05056229 -0.02756827
 -0.01617671 -0.00648918  0.0043885  -0.03628381  0.00725958 -0.0003178
 -0.03208744 -0.05353029  0.01394368  0.06652194 -0.06295447 -0.07628224
 -0.04837439  0.01427395  0.07424503  0.03071928  0.04913656  0.03435888
  0.01570189  0.01333812 -0.02800983  0.0169823  -0.01656233  0.01525798
  0.06743882 -0.0124053 ]","[ 0.04812703 -0.00690732  0.07476429  0.03597891  0.03634641 -0.06170262
 -0.0142081  -0.02221246  0.01243529 -0.03967277 -0.0635538   0.02796111
  0.05414411  0.06579909 -0.00724212 -0.02413303 -0.04747214  0.00750255
 -0.06305514 -0.04061123  0.00853306 -0.03872386 -0.01273676  0.04067096
  0.01603264  0.07381932  0.06234273  0.01857076 -0.01826182  0.02891936
  0.02280451  0.05466653  0.01250748 -0.06989536 -0.07297657 -0.03123592
  0.04536656  0.02660691 -0.01730652 -0.03608463 -0.01647886  0.04888199
 -0.07314681  0.03566459 -0.01131944  0.03891017 -0.03793001 -0.02138516
 -0.07623826 -0.02788277]","[-0.05411442 -0.00832308  0.04758803 -0.02673228  0.03190386 -0.02713751
  0.0701923   0.03138658  0.00906144 -0.05757789  0.01833648  0.02110121
 -0.01829383  0.04250216  0.05436973  0.06375497 -0.01026951  0.02259254
  0.01257313  0.05007454 -0.00466692  0.00172076 -0.0112884   0.01597565
 -0.051271    0.06583402 -0.04940295  0.01238753  0.07494304 -0.06016284
 -0.04263053 -0.03780031  0.07223336 -0.04995755  0.02271925  0.07453165
  0.01195969  0.01140293 -0.00598524 -0.00943398 -0.02118737  0.0685247
 -0.01092547 -0.03676812  0.07431411  0.02569617 -0.00937855  0.02600854
  0.04106869  0.05912489]","[-0.01700661 -0.05591427 -0.01894653 -0.0267438   0.02376959  0.00903948
 -0.02492299  0.04726405  0.05482701 -0.05839743  0.0630986   0.06188477
  0.05761928 -0.01677186  0.01153557 -0.03328346 -0.05930246 -0.02617872
 -0.00056358 -0.01929224  0.02854921  0.00964928  0.00805093  0.06198966
  0.07109752  0.00973007 -0.01955362 -0.07350532  0.00473866 -0.06907355
  0.01746144 -0.04499473 -0.04764214 -0.0043989   0.03553474 -0.05101975
  0.02425347 -0.04156374 -0.0124113  -0.01176279  0.02089484  0.00297432
 -0.00689778  0.03614603 -0.07587176 -0.03377565 -0.04189828 -0.06578229
  0.01475479 -0.02706938]","[-0.04276412  0.01086253  0.00587287  0.03375911 -0.05267439 -0.02403729
 -0.03037853 -0.03895978 -0.04453409  0.01630671 -0.01821902  0.00118927
 -0.03167902  0.05075129 -0.00685    -0.06864189  0.013301   -0.04801368
 -0.01991472  0.04821629  0.00054265 -0.03431462  0.01396333 -0.00256093
  0.01999886  0.00106914  0.05074223  0.02426841  0.00814888  0.05686992
  0.01075859 -0.07524518 -0.03269695 -0.02543483 -0.01103448  0.03992276
 -0.07160694 -0.04445445  0.05560081  0.06572387 -0.01031931  0.0346966
 -0.03504925  0.03251345 -0.01664068 -0.0642435   0.03461986  0.0092663
  0.04132904 -0.02578036]","[-0.03050305  0.00575726  0.04049255  0.02892027  0.05532318 -0.05599407
  0.07087205 -0.03359309 -0.01490708 -0.04839208 -0.03941824 -0.0034726
  0.00707149  0.01469259 -0.01833575  0.07192192 -0.07480991 -0.03653844
 -0.06429543  0.00767693 -0.07205889  0.07624292 -0.0458362  -0.03632327
  0.01516105  0.06652353 -0.01139157 -0.03564893  0.03458044 -0.02209263
  0.06023223 -0.06698599 -0.03548687  0.07143437 -0.03062392  0.00908975
  0.0065347  -0.02859453 -0.03965271 -0.00899481  0.02681934  0.03389379
  0.00280992 -0.04587668  0.003605   -0.02068321 -0.00866432  0.01517656
 -0.05953936 -0.02588397]","[ 0.05317559  0.06027607 -0.05579135  0.00162236  0.01093916 -0.05955164
  0.00155498  0.06732046  0.06567944 -0.01275275  0.00522696  0.03020043
 -0.0432193  -0.04379808  0.06921151  0.00678904 -0.05367516  0.01124662
 -0.0440812  -0.0630831  -0.07281195 -0.06771613 -0.04841016  0.06393976
 -0.0187084  -0.02454521  0.06943423  0.04181785 -0.07258057 -0.04074803
  0.06792531  0.07461555  0.00246356  0.0379706  -0.04402243  0.04651691
 -0.03568629  0.05198701 -0.04280526  0.07000833 -0.07380845 -0.05385401
 -0.0416643   0.05816769  0.01740288  0.00791264 -0.07293215  0.05110241
 -0.01126688 -0.07618041]","[ 0.05760837 -0.0106275   0.02918054 -0.0050107  -0.02638652 -0.06471486
 -0.044825    0.01373557 -0.01067964 -0.05440757 -0.05475993  0.01853699
  0.00646158 -0.03059487  0.02263732 -0.02583799 -0.05709821 -0.03893486
  0.06468185 -0.03302369 -0.01862777 -0.01776009  0.00565152 -0.00946847
  0.04897524 -0.04436124 -0.07607702  0.02042671  0.03993132 -0.04253647
  0.02777477 -0.04286109  0.0091102  -0.05537821  0.06268812 -0.02749036
 -0.04503363  0.00353812  0.02513272  0.03768831 -0.0140832   0.07272152
 -0.06825981 -0.02104078  0.05346846  0.05011783  0.05745322 -0.01917798
 -0.0092617   0.02823356]","[-0.00818923  0.06555658 -0.00021132 -0.07242464 -0.04475445  0.06208434
 -0.03196324 -0.04283207  0.02856383 -0.04865672  0.0277717  -0.05314826
  0.06681185  0.04942151 -0.03835648  0.033638    0.06712771  0.01406464
  0.05332939 -0.06081512  0.05422596  0.00189358 -0.06868713 -0.06595983
  0.01432455 -0.02936072 -0.02773686 -0.05678735  0.06466643 -0.02046691
  0.06506795 -0.01686552 -0.05763009 -0.03555961  0.01829524  0.05348197
  0.06407017 -0.02057083  0.00855803  0.05691018 -0.03894839  0.04393045
  0.0382111  -0.00710651  0.0675832  -0.06999263 -0.03927388 -0.0612471
  0.0159878   0.03576131]","[-0.00606561  0.00550192  0.06163349 -0.00716925 -0.03676927 -0.04471875
 -0.05190638 -0.04966059  0.03189291  0.00275913 -0.06397934  0.03619291
 -0.05138508 -0.01341005  0.06460305 -0.01967826  0.0032285  -0.00423343
  0.02847254  0.04775668  0.05259336 -0.00155611  0.03171922  0.0063353
 -0.00840141  0.03624532  0.04481993 -0.07541343 -0.03985076 -0.04469557
 -0.05983671  0.03976112  0.0048451  -0.05864855  0.02575495  0.01817232
 -0.04977936 -0.0562879  -0.05932098 -0.05077671 -0.07511286 -0.03431028
 -0.05182628  0.03111472 -0.03442895  0.05581304  0.00159439  0.07623596
 -0.03369157  0.03027055]","[-0.03663626  0.02556674 -0.05420209  0.06406296  0.00721955 -0.04023405
  0.04955    -0.0752739  -0.07365134 -0.04568239 -0.01609405  0.00217383
 -0.00067104 -0.02068414 -0.01067252 -0.01862095  0.01170461 -0.03623689
 -0.01885652  0.07180265  0.00364336 -0.02865919 -0.0689669   0.01809569
  0.06496885 -0.05693905 -0.03571233  0.00642154 -0.05480873 -0.00948548
 -0.02573242  0.01150697 -0.06773785 -0.0660281  -0.02275432  0.06625748
 -0.0567309   0.06377835  0.01048526  0.01839032  0.06730672 -0.05663816
  0.07101493  0.0377022  -0.06789102 -0.06252232 -0.0416088  -0.05817989
 -0.01516538 -0.01834296]","[-0.06685025 -0.03390799  0.00388645  0.05160046  0.06308065  0.04805981
 -0.07077467  0.07351878  0.07232318 -0.04958671 -0.00406586 -0.04490309
 -0.0055507  -0.01270732  0.00400979  0.03283655 -0.05538248  0.03439821
  0.04437608  0.0554475   0.01676565  0.06926405  0.0604716   0.06774784
  0.02879968  0.01670601  0.04922194  0.0747942   0.00307903  0.04178727
 -0.04000773 -0.03599209  0.04394246  0.06067222 -0.06839824 -0.01400261
  0.04099265  0.07044607  0.04014163  0.02157163  0.00305034 -0.074835
  0.07489669  0.05331106 -0.03393061 -0.03793808  0.01738998  0.00745027
  0.05257367 -0.06780758]","[-0.07079138  0.06281982  0.07123423 -0.04510083  0.04374682  0.00048585
  0.03735114  0.06276777 -0.0597071   0.05965934  0.04780108  0.01035559
  0.00862733 -0.05248196 -0.03468912  0.07239038  0.03477935  0.00994982
  0.00849228 -0.03125193  0.01322891  0.00433754  0.03632212  0.05556113
 -0.024149   -0.06413142 -0.03574912 -0.00971799 -0.07057198  0.0444074
  0.02677545 -0.01766144 -0.04335625  0.04421083 -0.03367398  0.0723188
  0.05348436 -0.03183449 -0.00701365  0.05186654 -0.06744134 -0.01273545
 -0.01283292  0.03086457 -0.00135179  0.04127301  0.03277256  0.04029251
  0.07081481  0.06059936]","[-0.0109033  -0.00930791 -0.05847806  0.03716689 -0.04052646  0.03085395
  0.032331    0.01018506  0.04272851  0.05829532 -0.06438522  0.01072454
  0.04026621 -0.03568663  0.07367107  0.01709087  0.06602915 -0.01704777
 -0.00175519  0.01294423  0.05372489 -0.03765858 -0.02606103  0.03890747
  0.01242961  0.02549058 -0.01296721  0.02248979 -0.04674591  0.06262768
  0.02126871 -0.05562434 -0.06833466 -0.03380713  0.04997627  0.07445847
 -0.0471443  -0.0144284   0.01848334  0.00358146 -0.00083254 -0.03077834
  0.02015185  0.00405481 -0.05174276 -0.02959161  0.00224061 -0.04540488
  0.00397313  0.05409151]","[ 0.0582385  -0.0621121   0.01288658 -0.03562966  0.06214923  0.06985637
 -0.06250586  0.04423173 -0.03639348 -0.02492609  0.05668213  0.05592572
  0.03954539 -0.07576314 -0.00916132  0.0176271   0.07226378 -0.00647688
  0.02743877  0.00565811 -0.02417223  0.05008397 -0.05221316 -0.03095961
  0.06150139 -0.07067485  0.07312273 -0.06440876 -0.04001281 -0.05358592
  0.02862553 -0.01209865  0.05397021 -0.05274637  0.00567394 -0.06321388
 -0.02127139 -0.01391373  0.05426719 -0.07067075  0.00921042  0.06061017
 -0.07196388 -0.00499495 -0.02816503  0.05687373 -0.05002587  0.02411425
  0.05626111 -0.01759018]","[ 0.06626826  0.06842529 -0.04086138  0.03822944 -0.02022681  0.06221863
  0.02799824 -0.03745547 -0.04065844 -0.01865254 -0.04877971  0.00113532
 -0.01059416 -0.05503047  0.01260421  0.01518116 -0.02334583  0.05348092
  0.03471629  0.03080111 -0.02229271 -0.06948394 -0.06844267  0.01108565
  0.02976062  0.00955498  0.04431537  0.00383342  0.01019233  0.06129535
  0.05722252  0.02509043 -0.07066987  0.0708838  -0.04645012 -0.02084175
  0.01822884  0.01414868 -0.04973667  0.02962977  0.06844261 -0.01371966
 -0.01766665 -0.04824588 -0.05103524  0.03272949 -0.01378043 -0.02142579
 -0.00884166 -0.0446308 ]","[-0.04872967 -0.04015744 -0.00287428  0.00086925  0.00391641 -0.06731187
  0.06250019  0.01984126  0.07037548  0.06073547  0.00374337 -0.00437311
  0.04280184  0.01328424 -0.06128705  0.03592281 -0.04671467  0.06924116
 -0.05646586  0.00319193  0.05069957 -0.07389255 -0.05850914  0.05601654
 -0.04307076  0.00397168 -0.01639469 -0.03832947 -0.0365524   0.01437748
  0.00471833  0.06363539 -0.05787718  0.03082192  0.00460639  0.00860088
  0.04769854  0.0638831   0.0429736   0.07111525 -0.05812886 -0.06496371
  0.0049736   0.07399782 -0.04157719 -0.03393583  0.04329818  0.00764554
 -0.03494723 -0.06637564]","[-6.4293936e-02 -2.3140296e-02  3.6989182e-02  6.4249374e-02
  4.3193929e-02 -2.4955563e-02  6.9223344e-05 -3.5059888e-02
  1.1728130e-02 -5.8029890e-02  5.0094746e-02 -3.1106491e-02
  1.2454651e-02 -1.4121342e-02  4.8675977e-02 -2.6509240e-03
 -2.2660811e-02 -2.9338147e-02  1.6202345e-02 -6.4849652e-02
  4.9015485e-02 -1.3918400e-02 -3.3190619e-02 -4.5087636e-03
 -4.6886005e-02 -4.2574979e-02  1.4003888e-03 -5.3939492e-02
 -4.7732294e-03  5.6199811e-02 -6.1631061e-02 -3.8912345e-02
 -5.7296477e-02 -2.2941880e-02 -6.2432960e-03  1.1541873e-02
 -7.2064072e-02  1.8499784e-02  4.2326905e-02 -2.8232902e-02
 -4.4662829e-02 -5.9779055e-02 -5.8942966e-02  6.0046546e-02
  5.0971396e-02  3.6562093e-02 -2.9769141e-02  3.4197189e-02
  6.3192323e-03  4.7822781e-02]","[-0.00570469  0.00865446 -0.0751285  -0.06459415 -0.00886051 -0.04151311
  0.00934788  0.03806229 -0.024927    0.04015873  0.00959646  0.05937939
  0.02124995 -0.03523719  0.04613342 -0.07388907  0.0763154  -0.03590595
 -0.05355553  0.02756037 -0.03833859  0.06533065 -0.00548195  0.01030008
 -0.06326242 -0.02584425 -0.05763628 -0.06984095 -0.06133676 -0.03058793
 -0.03165212 -0.06552599  0.0142755  -0.05123632 -0.05578671  0.02913559
 -0.03666227 -0.03647849  0.03183042  0.07049777 -0.04414244 -0.01886376
 -0.07095744 -0.03244611 -0.0048229  -0.03030522 -0.00453689  0.06064186
 -0.02360856 -0.01722348]","[ 0.06260578 -0.00247549  0.0231807   0.07621076  0.06036883  0.04061428
  0.04545408  0.07645033  0.00117553  0.03200973  0.02219755  0.03543036
  0.04671922  0.05552366 -0.05631139 -0.06902617  0.03568207 -0.06420979
  0.02503026  0.01147013 -0.0219294  -0.00564555  0.01614278 -0.01059507
  0.019728   -0.03688419 -0.07271244 -0.0322123   0.02209562  0.02109975
  0.05019044 -0.04685333 -0.02582573  0.07338604  0.02966444 -0.04711586
  0.03323422  0.07523171 -0.01533928 -0.04498323 -0.05240542  0.03215631
  0.07308888  0.04114775  0.02251227  0.0676743  -0.06560948  0.02467114
 -0.03972336 -0.00656265]","[ 0.04114912  0.07645845  0.03412574 -0.00109234 -0.04302853  0.07579925
  0.02207637  0.0140982   0.03950994  0.06244814  0.06314795  0.01193505
 -0.02273009  0.06387527 -0.05650049  0.04917162 -0.00323357 -0.05752422
 -0.03511391  0.06579616 -0.00533582 -0.04445834  0.01704521  0.07555564
 -0.06162971 -0.01468306 -0.06832687  0.05757736 -0.03898558 -0.01771331
 -0.04689259 -0.03063015  0.04331949 -0.0282652   0.030646   -0.07027478
  0.06606323  0.03787095  0.00838476 -0.00416347  0.03277805 -0.04456601
  0.05567021 -0.00464929  0.047075    0.02950828  0.05690167  0.0158804
  0.00227241 -0.02186766]","[ 0.02936693 -0.06124796 -0.0296286  -0.02785602  0.0617924  -0.0329837
 -0.06153676  0.06085338 -0.07425031 -0.04857826  0.04760636 -0.06532941
 -0.02724312  0.04879805 -0.02914231 -0.05407447 -0.03004736  0.04500017
  0.07647299  0.03702556 -0.06773839  0.03902124  0.07422406 -0.05521551
 -0.06163459 -0.06990163  0.02244274  0.05317817  0.00563285 -0.05945402
 -0.05334549  0.06167933 -0.04675318  0.01539692 -0.02816877  0.03781062
  0.04817324 -0.01921796  0.03227693  0.01630015  0.0607275   0.01648603
 -0.06611147  0.07073116 -0.01389007  0.05764852  0.01309873 -0.0527939
  0.04211387 -0.02459408]","[-0.04981641 -0.00580027  0.0756086  -0.04701939 -0.01128325  0.06688882
 -0.02602553 -0.05672266  0.07396395  0.0281897   0.05074451 -0.01089147
  0.07468196 -0.07168102  0.04676652 -0.03950107 -0.01051342 -0.02199598
  0.02473541 -0.05012898  0.028492    0.00743596  0.00917587 -0.02071004
 -0.00999313 -0.01950139 -0.0742489  -0.07456007  0.06714798 -0.07060537
 -0.0184085   0.06842264  0.01373637  0.01962747 -0.07115282 -0.04414932
 -0.00768898 -0.04840591  0.07232802  0.07174204 -0.01197896  0.04979173
  0.01831557 -0.03459725 -0.04294788  0.0628447   0.06938594  0.0734848
  0.03527303 -0.06544959]","[-0.06895261 -0.0590066  -0.07443431 -0.01846206  0.00191398 -0.03334713
  0.06711312 -0.01613415  0.07012073  0.06533141  0.0166422  -0.00915828
  0.06289629 -0.03769192  0.06083096  0.04539825 -0.0445619   0.03549621
 -0.01751219  0.07642611  0.0311849  -0.05101146 -0.07182211 -0.06588577
  0.02479286  0.0546781  -0.03848166  0.05868734  0.06003395 -0.00236847
  0.02544399  0.04783025  0.02610424 -0.04953393  0.0520924  -0.06957643
  0.07078924 -0.06617956 -0.03872386  0.0427439  -0.01407442 -0.07239322
  0.04914621  0.03826474  0.02052905  0.01430298 -0.0711823   0.03944879
 -0.00360774 -0.01385991]","[ 0.00545586 -0.01654401 -0.03210882  0.02277195 -0.04536798  0.01203183
  0.03846529 -0.04069916 -0.01782763  0.00792146 -0.00671887  0.07053905
 -0.02330219  0.03963596 -0.05462009 -0.0232116  -0.05084796  0.01231118
 -0.01676998 -0.03121689 -0.04464133  0.05587079 -0.03770373  0.05290116
 -0.02886654 -0.04951263  0.01792556  0.04120588  0.05773691  0.05318343
  0.0636747  -0.03082829  0.02476271  0.0744817   0.05787582 -0.06732258
  0.02510766 -0.02075908 -0.06375242 -0.05443334 -0.01178644 -0.06981354
  0.00738334 -0.0390549  -0.00691417  0.0705378  -0.01905992  0.01794091
 -0.00738215 -0.03634273]","[-0.01053501 -0.0636583  -0.02022728  0.02283778  0.04242024 -0.01085652
  0.01501457  0.01566701 -0.00939549  0.01820774 -0.05377535 -0.03151385
 -0.05290291 -0.04037995  0.04290574 -0.06851154 -0.03745246 -0.01900843
  0.06348722  0.03988998  0.01314706 -0.06201959  0.07653031 -0.00854737
 -0.02563348  0.04923026  0.00071869 -0.01086525 -0.01263852 -0.06678703
 -0.07014532 -0.04299951  0.03734405  0.05977111  0.0416926  -0.04367528
 -0.06217659  0.0441054  -0.06023412 -0.06657641 -0.00445617 -0.0354214
  0.07618827 -0.07171112 -0.07583484  0.07059673  0.05336366 -0.02916068
  0.05289421  0.03438739]","[-0.03937739 -0.0195934  -0.02005225  0.00020923  0.00542432 -0.01968978
  0.04225237 -0.02334221 -0.02605632 -0.01040574 -0.0439836   0.02439599
  0.07074044 -0.05254615 -0.0539513   0.05275542 -0.06194588 -0.05645765
 -0.0445893  -0.03533012  0.06487497  0.01797018 -0.04427138  0.02612069
  0.03367616 -0.04510904  0.0612785  -0.0513938  -0.04626145  0.04918916
 -0.03112733  0.03591213 -0.00127417 -0.07372192  0.05911108 -0.05053428
  0.07012627  0.04511797  0.00896829  0.06551493  0.00841935  0.0374452
 -0.00122515 -0.01866693  0.02617589 -0.03168716 -0.07459807 -0.06188799
 -0.06058701  0.06740903]","[ 0.01354238 -0.05389881 -0.0735996  -0.02266057  0.02579029 -0.00535466
 -0.03700641 -0.0377969  -0.02651164 -0.07155193  0.0181653   0.02560689
  0.06858478  0.01441077 -0.01663488 -0.06916141  0.04633968  0.06064824
  0.07652306 -0.06479266  0.01566539  0.0372898   0.05025937  0.0171206
  0.04063753 -0.01819342  0.07539973 -0.07571357  0.00404873 -0.05235618
 -0.04021339  0.02807498 -0.00947502 -0.03699574 -0.07322263 -0.03141034
 -0.05934948 -0.06841779  0.00928378 -0.04598147  0.07650473  0.00281928
 -0.01193786 -0.02968141  0.07151767 -0.02415597  0.025722    0.01273628
 -0.02435282  0.06695654]","[ 0.01547072  0.00712083  0.04237036  0.02425084  0.02149503 -0.0382983
  0.01989044 -0.03251151 -0.05916137  0.0121212  -0.05497112 -0.01890384
 -0.00240179 -0.05025507 -0.06620682 -0.05701856  0.0594765  -0.04796289
 -0.0445213  -0.05086205  0.04748134  0.04091948  0.06915472  0.0639685
 -0.06033048  0.06375582  0.00090799  0.01899581  0.05082712  0.05190771
 -0.00285783  0.03824771  0.05933412  0.06414794  0.05970132  0.04841989
  0.04185965  0.05140502 -0.03756492  0.03873291  0.01236833  0.04626128
 -0.06071869 -0.07167949  0.06356706  0.01094064  0.0672312  -0.00661924
  0.00205657  0.0618386 ]","[-0.07514282  0.04757551  0.04087215  0.03462665 -0.07124667 -0.03563066
  0.05943813 -0.07160928 -0.04167096 -0.06650857  0.01249038 -0.05189997
 -0.00511036  0.04664651  0.0246717   0.02029065 -0.05245167  0.0387196
  0.01267403 -0.02415601 -0.03654674 -0.04622152  0.0049264   0.0612962
 -0.03921195  0.03732728 -0.03683376  0.05517089  0.02442514 -0.00213081
  0.03120735 -0.00606948 -0.06198685  0.0296792  -0.0108845  -0.06024126
 -0.00193714 -0.02214302  0.05867363 -0.04787629  0.030658   -0.009
  0.04284966 -0.02230855 -0.00748375  0.06258399  0.05896062  0.00395681
  0.05858638  0.02394854]","[-0.0698839  -0.01308035 -0.07158402 -0.07000025  0.02735072  0.05076367
  0.01133887 -0.05320607  0.0726691   0.05637612  0.0564229   0.05193687
 -0.03543573  0.01235092  0.00918828  0.04030222 -0.06374881  0.0663726
  0.04140823 -0.01988573  0.07441496 -0.0617859  -0.06016306 -0.04214099
  0.04134113 -0.00672128 -0.07257885 -0.05239243 -0.03721815  0.04644012
 -0.04845341  0.01988205  0.07217396  0.00651504  0.04212873  0.068404
  0.05294461  0.03766403  0.00154206  0.01269986 -0.06184687  0.02732652
 -0.03901429  0.06082844 -0.04718118 -0.03292691 -0.04174086 -0.0529654
  0.00800089 -0.06158983]","[-0.00932612  0.03636594 -0.00308573  0.0117389  -0.00279532 -0.02983189
 -0.04033271  0.04026831 -0.0509641   0.05538181  0.0094655  -0.00925747
 -0.05164379  0.02614248 -0.0713395   0.06939618  0.07496818 -0.04699092
 -0.0139465   0.02976649  0.00428447 -0.0702328   0.03782433 -0.06867605
  0.06542546 -0.03097987  0.06254264 -0.0590957  -0.02742851 -0.04232895
  0.03853513  0.05207697 -0.0558987  -0.03121535 -0.06253939 -0.0647219
 -0.06411301 -0.00098202 -0.03307128  0.05401405 -0.07199733 -0.04815913
  0.03758377  0.01163662  0.01253736 -0.00390695 -0.02151602  0.0523402
  0.00515371  0.0611387 ]","[ 0.019666   -0.05098547  0.06198492 -0.06504755 -0.02677061 -0.03772308
 -0.00210457 -0.06126412 -0.06752671 -0.0291797  -0.06171992  0.00210483
  0.03917997 -0.04386336  0.04788898  0.0559325  -0.00608195  0.06870506
  0.06460399  0.01862016  0.01019826 -0.06838598 -0.00748027 -0.01349812
 -0.02371662 -0.03612004 -0.02191737  0.02894261  0.01715263  0.07381602
 -0.00752223 -0.05592335 -0.01467224 -0.02807987 -0.01628192  0.03593606
 -0.02163789  0.03124858  0.01820977  0.05318319 -0.05518992  0.01105687
  0.03518862  0.03083415 -0.00047549 -0.03256583  0.02100651  0.03498769
  0.05939414 -0.05696619]","[ 0.01830978 -0.00672428 -0.03646914  0.03217444  0.07400764 -0.02302757
  0.07120993 -0.04722418 -0.01286968  0.05031685 -0.06342047  0.06973159
 -0.02032574  0.05551911 -0.02435444 -0.01273001 -0.05685017  0.01461615
 -0.00128029  0.01933363 -0.04325635 -0.0009455   0.00517006  0.02199837
  0.04515518 -0.02286081 -0.06821109 -0.06059026 -0.02843774  0.0244178
  0.02208825 -0.03014922  0.01777916  0.02272158  0.0024271  -0.07008397
  0.04909501 -0.02548257  0.07638254  0.06912077 -0.07324295  0.00030436
 -0.01693157 -0.02780218 -0.05402821  0.02434935  0.04237282  0.05441507
  0.06877805 -0.05113355]","[ 0.01141145  0.01992001 -0.04234585 -0.01147376  0.07416881  0.0346789
 -0.04580633  0.05284715  0.03615113  0.04474919 -0.04910542 -0.00262249
  0.03943732  0.06650838  0.05479278 -0.03921632  0.0438602  -0.01214657
  0.07242139  0.02555081 -0.05205258 -0.00505145  0.07570609 -0.05965326
 -0.02644766 -0.03327109 -0.03695538 -0.0189696   0.02576873  0.05292619
  0.06381547  0.01004028  0.01495378  0.0238127  -0.03944169  0.03105572
  0.04196915 -0.05527117  0.00469019  0.01537883 -0.0655725  -0.03892572
 -0.06628703  0.03320208  0.0087283   0.06400105  0.03902955 -0.00303341
  0.01158943 -0.05999142]","[-0.02465318 -0.07137108 -0.06832062 -0.04482896 -0.04084417  0.07330143
  0.03200292  0.07468138  0.04136613 -0.01621084 -0.00882684 -0.01982655
  0.01947439 -0.01119198 -0.0504844  -0.04650544  0.04422387  0.00347231
 -0.0235143  -0.04160887  0.04827091  0.02498943 -0.04756044 -0.07114985
  0.04414082  0.05174416  0.0336528   0.0388949   0.03814704  0.00076956
 -0.01407603 -0.0603011   0.0472196   0.06981014 -0.0095034   0.0605681
 -0.01542279 -0.03399793  0.00793201  0.01280374  0.07022678  0.06051535
 -0.00181501  0.03521739  0.05184496  0.04667647  0.03124118  0.05186344
  0.06983096  0.01961412]","[-0.02274327 -0.0521334  -0.02583688  0.05050827  0.03392635  0.03706479
  0.07345698 -0.06477132  0.0108638  -0.04989457 -0.07075167 -0.04814732
 -0.02950216 -0.0729857   0.04412069  0.06224837  0.00082602 -0.00118785
  0.01323242 -0.00011896  0.04670102  0.04473136 -0.04982647 -0.06719808
  0.01684422 -0.01141404  0.0252032  -0.0295931   0.04974728  0.06315979
 -0.01413322 -0.07148644 -0.02109011 -0.01251768  0.02468523 -0.04316011
 -0.02664175  0.02915379  0.0593789  -0.03028162 -0.06856788 -0.03714407
 -0.00739644 -0.05659602 -0.06701601  0.04248893 -0.01524409 -0.03460619
  0.03283066  0.0615708 ]","[ 0.03669903  0.06967454 -0.07015564 -0.02758115 -0.03818944 -0.03882942
 -0.03971042  0.02703599 -0.05813153  0.07120133 -0.07080857 -0.00057546
  0.01451554  0.03580397 -0.06606938 -0.01890972 -0.03751019  0.05281778
 -0.02344768  0.07333226 -0.00623864  0.02428854  0.04870503 -0.06321371
  0.0459834   0.01303579 -0.00505611 -0.06406745 -0.02731386  0.05256622
  0.07086257 -0.0240691   0.04435951 -0.06457581  0.05679642  0.02146333
 -0.0403185   0.07493866  0.0678123   0.00322609 -0.06368345  0.04135237
  0.05379189 -0.06437551 -0.04832273 -0.00949132  0.06960248 -0.00523651
  0.0480671  -0.01550392]","[ 0.04166267 -0.02890405 -0.02802675 -0.04368624 -0.05243147  0.03410804
 -0.06958598 -0.01874572 -0.04336161 -0.04410049  0.05952767 -0.01489684
  0.06898912  0.04055834 -0.06248557  0.02895774 -0.03254825 -0.02703964
 -0.04505143 -0.06237079 -0.02000155  0.0314625  -0.002643    0.00673581
  0.03433435 -0.04269981 -0.04433172 -0.04907494 -0.00143878  0.06148174
 -0.05886987 -0.0077455   0.03652599  0.05985812 -0.06059144  0.05554193
  0.00539194 -0.05726755 -0.02921507  0.03188545  0.05195761  0.05537406
 -0.01068161  0.02986643  0.05322618  0.03119132  0.03392595  0.05043241
  0.01597639  0.00435831]","[ 0.0655131   0.02078263  0.03634362  0.07631756 -0.05687658 -0.05950993
  0.00514929  0.00152841 -0.02443164  0.05333591  0.04177683  0.01672757
  0.05820624 -0.02773849 -0.03748493 -0.03310773  0.058418    0.0199772
  0.05257017 -0.05587238 -0.03233378  0.04466383 -0.05732164 -0.01491544
  0.00675121  0.05383251  0.00441058 -0.06914978 -0.07275648  0.03373814
 -0.04464399 -0.01886364 -0.03918113 -0.04489369 -0.05609527 -0.03778879
 -0.04855357 -0.04989149  0.00668918 -0.0228635  -0.00789555  0.02933095
 -0.0460419   0.04405672  0.00098043  0.00840851 -0.05234235 -0.04810462
 -0.03937281 -0.04855047]","[ 0.0391429  -0.06605849  0.02664395 -0.06456468 -0.06064468  0.01418852
 -0.04584644 -0.04027975  0.05195647 -0.00903098  0.02136692  0.07536485
  0.0744273   0.07062524 -0.00137347 -0.07340803  0.00317795 -0.00164585
 -0.05064087 -0.02505223 -0.00911748 -0.0259349   0.03922254  0.03246326
 -0.03003065 -0.01028666 -0.01952415  0.04757138  0.033871   -0.04163535
 -0.04980626  0.0586141   0.0060966   0.03895272  0.06487932 -0.06014468
  0.06617374 -0.01255417 -0.02242312 -0.05380441 -0.07545558  0.05419128
  0.02840235 -0.07032573 -0.05358573  0.07084004 -0.00259836  0.03588393
 -0.02859869 -0.05301027]","[-0.05839347  0.04904441  0.01492062  0.06605428 -0.05108904 -0.02252835
  0.06799347  0.03063695  0.05164161 -0.03989542  0.0581191  -0.0185155
  0.01345744 -0.05073368  0.05946998  0.06818014  0.06223195  0.05070507
 -0.02441403  0.04377248  0.0042333   0.05780078  0.01463383  0.05425828
  0.04362031  0.04530416  0.06742115 -0.02490421 -0.00245928  0.02612432
  0.04485407 -0.02980796  0.05679324 -0.04566379  0.06170801  0.04368065
  0.04542912 -0.04673495 -0.01406341  0.02424001 -0.02101162  0.0483757
  0.01715267  0.05295881 -0.00092001  0.02590574 -0.03514256  0.01935132
 -0.04794646  0.071509  ]","[-0.01378006  0.04877239  0.05049673 -0.01254086 -0.00690991 -0.03411869
  0.06328269  0.06881986 -0.02488448  0.05658232  0.03704419  0.02152001
  0.06224469 -0.03547601 -0.01734032 -0.02290828 -0.07140037  0.00530332
 -0.02251497 -0.05661485 -0.03083695  0.04820954  0.06585758  0.05596571
 -0.00354284  0.01674896  0.06842253  0.02424455  0.03711122 -0.02078287
 -0.05067999 -0.00749279 -0.06996772  0.03401282 -0.04418681 -0.04697111
  0.0293517  -0.02694138  0.00073156  0.05542157  0.02291349  0.0120332
  0.0613184   0.07266594 -0.0329307   0.00974011 -0.00460903 -0.04725004
 -0.01957145 -0.00541934]","[-0.05897956  0.03995673 -0.02946907  0.05539929 -0.02208352  0.0324015
 -0.02192208 -0.06721774  0.02240659  0.0697424   0.00298297 -0.02657004
  0.0036936  -0.072963   -0.05321327 -0.00797527  0.02083337 -0.00456494
 -0.03750405 -0.07119486  0.06131119  0.04240246  0.05469813  0.06747676
  0.02979507  0.04470869  0.04069881 -0.06472512 -0.00281271 -0.02277958
 -0.01490438 -0.06888397  0.06661304  0.03355207 -0.06941545 -0.07069608
  0.06990039  0.06990976 -0.06092524 -0.03419109  0.05152414  0.06755488
  0.02459848  0.0232588   0.0164381   0.06351662  0.02563658 -0.03303398
 -0.00402645 -0.06930014]","[ 0.0657339   0.03924353  0.0109617   0.01343317  0.00169752 -0.06821769
 -0.00010406  0.03670914 -0.01205988  0.00995942 -0.05553539  0.00219445
  0.07188188  0.02977137  0.01083542  0.07339058  0.02395892  0.02722488
 -0.0322311   0.01678894  0.05745669  0.00966644  0.04522479 -0.03638629
  0.0072482   0.01537598 -0.03941981 -0.06744853 -0.07264928 -0.02973332
 -0.07594033 -0.06047035 -0.01083907  0.03149099  0.01788802 -0.01602481
  0.07477201 -0.074618   -0.05553041  0.0422757  -0.05587873 -0.04435564
 -0.06637892 -0.0505221  -0.00454222  0.04079214  0.0419857   0.06844518
  0.00766704 -0.06300236]","[ 0.03002276 -0.05670156 -0.00306772 -0.01714059  0.03072806 -0.02996019
 -0.06604748 -0.02221266 -0.04158818  0.06880172  0.06761179  0.03753659
  0.02505095  0.00578664 -0.05551769 -0.04036261 -0.06969062  0.01617165
 -0.0628663   0.01440026  0.00521006  0.00035896  0.03346848 -0.05958177
 -0.03646613  0.01306548 -0.01697597  0.05140799 -0.02595029 -0.02618954
  0.01468474  0.02301107 -0.04642274 -0.03378756  0.06040343 -0.01610464
 -0.00032633  0.07218958 -0.05049803 -0.0586304  -0.03511212 -0.00176351
 -0.02015029  0.0351359   0.01664002  0.00078769  0.02212187 -0.02681764
  0.06154852  0.01925609]","[ 0.00766673 -0.02745599 -0.02210327 -0.06128303 -0.0731731  -0.06633644
  0.02144784  0.03674536  0.02547465  0.01944926  0.00113869  0.01251252
 -0.03826795 -0.05998072  0.04743537 -0.07628854  0.02154285 -0.01763695
 -0.04756124  0.070085    0.04453267  0.04397257  0.05900588  0.04979881
  0.07317344 -0.07610936  0.04792031  0.03341272 -0.01683712  0.02879937
  0.01665774 -0.05685367  0.01655062  0.02210318  0.04857967 -0.04340609
  0.02577259  0.04498657  0.05996012 -0.05313443 -0.05228636 -0.0311164
 -0.02620958  0.03740572  0.03191463 -0.01068877  0.06731953 -0.06322988
 -0.06548689 -0.003469  ]","[ 0.06926597 -0.06954234 -0.03367321  0.03606331  0.03631871 -0.05242687
  0.05459564 -0.01230748  0.02047147  0.00504776  0.0166951   0.02667899
  0.0249517  -0.06651916  0.02987567  0.06736732 -0.05636094 -0.06035213
  0.0460963  -0.07379415  0.06642901  0.04650744  0.06826184  0.06265692
  0.07437006  0.01550605  0.0037765  -0.01836322  0.0189719   0.05704679
 -0.0749402  -0.03185267  0.04150861 -0.07349373 -0.01592188  0.04310594
 -0.00307319  0.06951851 -0.03813595  0.04764625  0.07022654 -0.06490271
  0.02709632  0.01017492 -0.00115859  0.06748088  0.00682724 -0.06634986
  0.02295902 -0.02641862]","[ 0.00762067  0.06986416 -0.02525771 -0.06542428 -0.07311551 -0.06274087
 -0.01787765 -0.01272442  0.07405522 -0.06878462 -0.05473044 -0.07322168
  0.02813815  0.01738472 -0.05773101 -0.01386942  0.05197897 -0.06901123
  0.06534659  0.0633845  -0.07037421  0.03352812 -0.01040569  0.02382873
 -0.0318169  -0.03544079  0.06504644 -0.06778037 -0.05101688 -0.04618379
 -0.07374471  0.02651334  0.02709284 -0.07259361  0.00939903 -0.07421833
 -0.02019953 -0.02520435 -0.05030841 -0.06170402  0.04826765 -0.00050203
 -0.0292448   0.06907094  0.02684523 -0.04683664 -0.03705224 -0.0691083
  0.04067741 -0.03447526]","[-0.07569277  0.03206415 -0.02596111 -0.01127569  0.03038908 -0.03563258
  0.00882915 -0.05221037  0.0456164  -0.04941709 -0.00441164  0.07062805
  0.00813229 -0.05328619 -0.00778941  0.06029622  0.03771426 -0.06755051
 -0.03027458 -0.05811457  0.07435254  0.00115643  0.02550241  0.0665062
  0.00522103  0.07444177 -0.00489127  0.01097146  0.00971996  0.01490431
 -0.03978253 -0.04934382 -0.06988689 -0.06283183  0.0024543  -0.03423591
 -0.05982399 -0.02118741  0.00505428 -0.06097882  0.01180954  0.01770322
  0.07487939 -0.0527755   0.02569124  0.02256069  0.07221936 -0.03688005
  0.06462724  0.01416514]","[-0.00125152  0.06520944  0.04220346 -0.06998833  0.04511932 -0.05388865
  0.04654068  0.06533938  0.05278903  0.03150634  0.02877599  0.02754162
 -0.05475925  0.02850924 -0.035999   -0.01844928  0.03409572 -0.06793755
  0.04816782  0.06245603 -0.03676689  0.04732826 -0.07553244  0.02714621
  0.05691963 -0.0075997   0.06004476  0.075348    0.07229912  0.04610577
  0.04286189  0.0741533   0.06242829  0.03721112 -0.04479321 -0.07591448
  0.02269527  0.03500665 -0.03090288  0.01359775 -0.04063933 -0.01543561
  0.03671286 -0.07075068 -0.05804676 -0.01571324  0.01291569  0.01192091
 -0.00819277  0.06688448]","[ 0.02909407 -0.05679272 -0.03198027  0.00386284  0.01936486  0.00171444
  0.05936254  0.00589977 -0.02323507  0.07399824  0.05941134 -0.0664788
 -0.07070834  0.04796311  0.06713723  0.04820779 -0.05936724 -0.02227407
  0.06764393 -0.06379735 -0.06194442  0.04721434 -0.03424661 -0.01259778
  0.02476518 -0.05172734 -0.05561721  0.00349338 -0.00392211  0.05220687
  0.03595949  0.04705109  0.0444823   0.0539637   0.0204985   0.03677265
 -0.01821109  0.05971425 -0.02285653  0.07045763  0.04705661 -0.03092257
  0.01194093 -0.01551118  0.07156879  0.05852658 -0.06084658 -0.0467338
 -0.06823955 -0.01360629]","[ 2.7155124e-02  6.9474034e-02 -2.9852465e-03 -1.4608767e-02
  7.5296588e-02 -5.3968146e-02  3.2530442e-02 -4.7531180e-02
  3.6187820e-02 -7.0071138e-02 -4.1897826e-02  4.4104487e-02
  1.2186229e-02 -3.9391827e-02 -7.2897807e-02  4.4816092e-02
 -6.3196354e-02 -1.2643792e-02  1.5576661e-02  1.2111567e-02
 -2.1075752e-02 -1.0242239e-02 -9.2154145e-03  4.4545405e-02
  4.5738690e-02 -4.4426672e-02 -2.2431225e-02 -6.1035212e-02
 -4.5202672e-05  4.0937737e-03 -6.6625208e-02 -2.6447859e-02
 -3.1931106e-02 -2.9395599e-02 -4.4406030e-02  6.4522542e-02
 -6.4812973e-02 -5.5123359e-02 -2.0268109e-02  5.3709097e-02
  7.6071300e-02 -2.0149156e-02 -7.2253890e-02 -5.5229723e-02
  2.3394920e-02 -3.0897200e-02 -4.6017371e-02 -2.2310298e-02
 -2.2897534e-02 -1.6039886e-02]","[-0.00174015  0.05505053 -0.05761706 -0.00682458 -0.06328554 -0.02096286
 -0.0359052   0.01662987  0.01636255  0.05577359 -0.03209797  0.00546023
  0.0548545  -0.05993451  0.00239369  0.02280703 -0.07083242  0.06878281
 -0.00050514 -0.063966    0.00235624 -0.01188263 -0.04441074 -0.03457029
  0.03861107  0.02895687  0.03674647 -0.0518379  -0.02000888  0.01534469
 -0.00605515  0.04887248  0.01376878  0.06279378 -0.070297    0.06282981
  0.00575572 -0.06733404 -0.0256488  -0.03609334  0.07179243 -0.06729084
  0.00317941  0.02711117  0.03575794 -0.07024762 -0.0122497   0.05340668
 -0.05129445  0.04401139]","[-0.04414565 -0.00420943  0.01813562  0.00619533  0.01959804 -0.03829012
 -0.00729242 -0.0652661   0.03973933 -0.01585985  0.02127993 -0.07375093
 -0.03968454  0.0002007  -0.05642507  0.07381625  0.00936221 -0.01534135
 -0.07093506  0.06178594 -0.00048151 -0.0618695  -0.02215903  0.04744064
  0.03346702 -0.03006664  0.04485469 -0.02864773  0.03898275  0.0048176
 -0.07263857  0.00348575  0.02144128  0.00179579  0.05437712 -0.00702254
 -0.06820123  0.03392112 -0.02350771  0.06753214 -0.03731374 -0.00324241
  0.03057031 -0.04921441 -0.07538417  0.02193072  0.05461165  0.0618239
 -0.02446907 -0.06029148]","[ 0.06236837  0.03829394 -0.01233942  0.01056343  0.01240705  0.06431059
 -0.02005115 -0.02443195  0.06699982 -0.04029258  0.0121677   0.04097908
 -0.06014933  0.07018682  0.04822341 -0.06901979  0.02190958  0.05127086
  0.05377694  0.01913379  0.03940937  0.06456809  0.04217393  0.05924936
  0.04122949  0.04710201  0.01824565 -0.05783628 -0.02026995  0.01677258
 -0.03101867  0.03021218  0.06184728 -0.03259269  0.03325373 -0.02619318
 -0.00685325  0.03216259 -0.0691902   0.05891717 -0.00062806  0.07156452
  0.04255671 -0.03784984 -0.0017924  -0.03464373  0.04194546  0.04110373
  0.01544126 -0.0544938 ]","[-0.05463495  0.05419547  0.02892476  0.06968807  0.01988641 -0.01676166
 -0.04210693 -0.0131879  -0.00556178 -0.00656539  0.05443657  0.04217868
  0.01117188  0.06945538 -0.02789425 -0.0212599  -0.01807532  0.06382137
 -0.03084238 -0.01434417 -0.05726127  0.0076005  -0.04647465 -0.04601745
  0.05794846 -0.03511665  0.06202639  0.03232175  0.05592399 -0.05914935
  0.07575969 -0.01881358  0.02356649  0.017781   -0.03934389 -0.07457921
 -0.04303251  0.05240507 -0.04816337 -0.01517967  0.07545166  0.0505401
 -0.07517971 -0.07215631 -0.00350212 -0.06882473 -0.02311165 -0.05882742
 -0.04171607 -0.01133632]","[-0.0109106   0.06760105 -0.07316159 -0.04717735 -0.02954733  0.05921666
 -0.04033156  0.03584802  0.05654346 -0.04032291  0.006091   -0.04829199
 -0.01800628  0.06104179  0.03432132 -0.06134224 -0.06805354  0.05912372
 -0.06867037  0.00675254  0.0216783   0.0101964   0.0136723  -0.0413201
  0.05255858  0.03927691  0.01857879  0.00411562  0.07614339  0.00429297
  0.00577136  0.0063723   0.00096455 -0.0374998   0.0157899   0.07535198
 -0.06426036  0.03826901 -0.01727947  0.06143407 -0.02036089 -0.04558745
 -0.0301454  -0.038404    0.01712666 -0.00100188 -0.0639224  -0.00939254
  0.02670369  0.0353028 ]","[ 0.03032012  0.06475893 -0.00127694  0.04987023 -0.04267105 -0.03953549
 -0.07619442 -0.07184222  0.0018103  -0.05371131  0.03351153  0.06226849
 -0.0167554   0.02168801  0.06040511  0.07032088  0.0198967   0.06225584
 -0.06742112 -0.01404774  0.02260698 -0.01847779 -0.02992722  0.03179377
 -0.02035876  0.03000236 -0.06579791  0.01296485  0.03549129  0.03611206
  0.03389741  0.07262447 -0.03859335 -0.07205667  0.05697315  0.05641659
  0.05801406 -0.04074396 -0.01087958  0.00840966  0.00705559  0.02419811
 -0.01002123  0.00523052 -0.03774282 -0.07005595  0.0763698   0.0740386
  0.00247278 -0.00179546]","[-0.03622071  0.00548142  0.07638412 -0.00916565  0.03033703 -0.05717033
 -0.01401971 -0.07530542 -0.05512904  0.06698073 -0.02876013 -0.04077628
  0.01910765 -0.0136639   0.03610469 -0.00567403 -0.02987802  0.00747248
  0.02893427  0.05284099 -0.06169479 -0.07583825 -0.01372626 -0.03046982
 -0.04093406  0.02424532 -0.03600189 -0.05760437 -0.02610423 -0.00357905
  0.00423308  0.07465457  0.07198339 -0.06572845  0.02315073  0.00606693
  0.04423665 -0.00533276 -0.01714741  0.01625001  0.00554236 -0.01232246
  0.01767373  0.0421778  -0.00490952  0.03550567  0.03644288  0.04256299
  0.01397605 -0.05274223]","[ 0.07227702 -0.06115342  0.03121373 -0.07588315  0.06409182 -0.0414651
  0.01001234 -0.03029111  0.03726865  0.06500805 -0.00509574 -0.0354847
  0.06065264  0.06081795 -0.03258484  0.0532643  -0.04300207 -0.06946102
  0.04273255 -0.00745779 -0.07614814  0.00291319 -0.03925782 -0.02081797
 -0.00669237 -0.03444426 -0.05341062  0.07359102  0.05254584  0.02122462
  0.03517103  0.00644202  0.05332186  0.05070307 -0.03630073 -0.001298
  0.01105862  0.01174368 -0.00213609 -0.00485579 -0.0521583  -0.02916873
 -0.04929234 -0.04160425  0.06292722  0.07351781  0.0011272  -0.06040699
 -0.03475159  0.02577256]","[-0.02702963  0.02068125 -0.06456061  0.01167378  0.04885574 -0.06525988
  0.04003152  0.04013771  0.05470806  0.03537811 -0.06630004  0.03518525
  0.058121    0.017547    0.01179445 -0.05785522 -0.01840702 -0.01118612
 -0.04964153  0.00501617  0.00397018 -0.01073758  0.05762584  0.0108854
 -0.05783239 -0.03120188 -0.05552806  0.01283268  0.01709538 -0.07568013
 -0.06830369  0.07638999  0.0054178   0.04431759 -0.07635451  0.03662516
  0.04615498  0.03743084 -0.07397895  0.03335682  0.05483026  0.06023907
 -0.02887463  0.00610611 -0.01597767  0.0440768  -0.00011799 -0.01330806
 -0.00026156  0.00442657]","[-0.07307338  0.04051587 -0.07575096  0.03593562  0.05103906  0.0500739
 -0.03294417 -0.00619566  0.02146386  0.00437237 -0.0441853   0.06070902
 -0.06122934  0.06165146 -0.02714501 -0.05514922  0.06033384 -0.05024463
  0.07005581 -0.05306247  0.01526135  0.05462701  0.05275241 -0.07050462
  0.04638477 -0.07127315  0.04622615  0.01813295  0.03139185  0.05338401
 -0.07559279  0.03587458 -0.05657326 -0.00666409 -0.06623046 -0.07397254
 -0.01813431 -0.0261671  -0.06000395  0.05983912 -0.04307923  0.07459768
 -0.03026277 -0.01633516 -0.0750107  -0.00036272 -0.01794487  0.07564358
 -0.03527515 -0.07206763]","[-0.05893939 -0.0240015  -0.01018131  0.0068531   0.04299597 -0.03284702
 -0.05735812 -0.00889411 -0.03805117 -0.05720318 -0.04005927  0.05726189
 -0.00057964  0.02086657  0.02990673  0.00062222 -0.04318975 -0.00296398
  0.02694669  0.04082886 -0.04831207 -0.04634624 -0.06220333 -0.01321802
 -0.06560284 -0.01226857  0.06464063 -0.06113333  0.02902884 -0.05764242
 -0.00015299  0.04539382  0.00620146  0.00227196  0.005959   -0.03532809
  0.05694089 -0.00269096  0.01174985  0.00220319 -0.01557721 -0.06151734
 -0.03254643 -0.05986919  0.06916142 -0.03387142 -0.00149755 -0.00619261
 -0.06665094 -0.06378872]","[ 0.06621257  0.02371737 -0.00865635 -0.02378513  0.01293399 -0.04255576
 -0.04259728 -0.02868983  0.00849045 -0.07080801  0.02563454  0.01414143
  0.03759512 -0.01818933 -0.06130568  0.02605778  0.00217319 -0.03937672
  0.01483329  0.04677674 -0.05495239 -0.03222975  0.04178281 -0.025732
 -0.05970516  0.06066471 -0.00568499  0.03111454  0.04655119  0.02179109
 -0.01783013  0.00746572 -0.05338423 -0.07115173  0.063673    0.02127541
 -0.00678255 -0.03487571  0.05052135  0.04484613  0.0482469  -0.00485658
 -0.06724296 -0.05729613 -0.02273456 -0.03343977  0.06394973 -0.05600698
  0.04457285 -0.0515229 ]","[-0.04963339  0.01097756 -0.07182629  0.04973302 -0.0153547  -0.02527808
  0.00484364 -0.02023793  0.05917547  0.0248315  -0.04780061 -0.02852092
 -0.04586314 -0.03099615  0.01820251  0.00624592 -0.05437724  0.02000808
 -0.01161128 -0.06660829 -0.05768188 -0.06944467 -0.03437737  0.06218902
 -0.02364672 -0.02546189  0.02077977 -0.02298466  0.04190785  0.05231551
  0.01958413 -0.00149269  0.03576115 -0.01788961  0.0241506   0.00178043
 -0.04930142 -0.0636971   0.01777016  0.00756057  0.03625702 -0.01483571
 -0.04796926  0.02639672 -0.04310405 -0.01287931  0.04177274 -0.05538043
 -0.00465752 -0.01586607]","[-0.04487037 -0.00480115 -0.06887241 -0.07396955  0.01584318  0.06947438
 -0.0051383  -0.0246379  -0.05465264  0.01185548 -0.00595277  0.05072742
 -0.04279433 -0.03448399  0.0198091   0.02583845  0.03005925  0.01915011
 -0.05377853  0.06389568 -0.06608995  0.00835467  0.04142181 -0.0318663
 -0.02965948 -0.03473224 -0.05210313  0.04886169  0.04532463  0.06425651
  0.01650026 -0.0168319  -0.01819433 -0.00419375  0.0102321  -0.04223049
  0.03878846 -0.00743587  0.03106622 -0.00126884 -0.03499915  0.0743651
  0.04868373 -0.0257027   0.02454723 -0.04314783  0.05704909  0.03235564
  0.05491249 -0.06775171]","[ 0.05751934 -0.00182506  0.07164355  0.07054252  0.04222952 -0.05023903
  0.06995129 -0.06684788 -0.07045288 -0.02186215  0.01077034 -0.02840764
 -0.06062185 -0.00087898 -0.03686687  0.00330365  0.06775052  0.03469645
 -0.0430266   0.04545027  0.05862375  0.01646429  0.00410631 -0.07235067
 -0.01023213  0.07319585 -0.05586039  0.04512536 -0.01377441 -0.00847337
  0.0458319  -0.00720581  0.07534442 -0.06891067  0.048055   -0.02960805
  0.02315351  0.01644515 -0.07020427  0.03668053  0.02278307  0.05996809
  0.00450233  0.05520136  0.0705289   0.05339352  0.0216541  -0.04157655
 -0.05073848 -0.0529417 ]","[ 0.06836178  0.01631691 -0.03843472  0.00745532  0.03974061  0.02035057
  0.07240792 -0.0519264   0.01471858 -0.00208739  0.06055788 -0.0181364
  0.00298873 -0.01947885 -0.05911745 -0.05800945  0.05588587  0.02818707
  0.07081633 -0.02322826 -0.03753043 -0.03072733 -0.03727847  0.04613341
  0.00906129  0.0664119   0.07084713 -0.01301011  0.06982508  0.02741051
 -0.04124042  0.0286973  -0.00052424 -0.06734813 -0.03181377  0.05457949
  0.05192781 -0.0095418  -0.01520122 -0.07126457  0.02339352 -0.03230158
  0.05886146  0.06298218 -0.07205728 -0.05544677 -0.01738746 -0.02435616
 -0.00565179  0.02047372]","[-0.04344124 -0.00446029 -0.06805842  0.0479413  -0.01447698  0.07534806
 -0.02710667 -0.04888102 -0.01255285  0.01926045 -0.05512688 -0.00167766
  0.04692616  0.0291653  -0.0654511   0.02317777 -0.03359915  0.0327104
 -0.00467375 -0.07604227 -0.06737401  0.04705743 -0.01463589 -0.05626648
 -0.01989708 -0.07165232 -0.01773669  0.06800727 -0.03534835  0.01241545
 -0.00650069 -0.01932011  0.07558852  0.01063865  0.0423572   0.04796833
  0.06892844 -0.06873529  0.01855844 -0.06338035  0.02620245  0.05779525
 -0.06326976  0.03076126  0.02825852 -0.06951375 -0.03605112  0.05117387
 -0.07512765 -0.04683337]","[-0.04214657 -0.04955041  0.00823873 -0.05313437  0.07128929 -0.01578188
  0.03514522 -0.0012805  -0.05776665  0.05746915 -0.02048508 -0.06686923
  0.00907704  0.03275353  0.06587819  0.0383037  -0.04488933  0.06261458
  0.01670138  0.05075837  0.05141603 -0.02655134  0.02298537  0.01406732
 -0.02038989 -0.01968484 -0.00676394 -0.0230641   0.01330352  0.00341003
 -0.04965035  0.07366496 -0.01494453 -0.07411378 -0.06142861  0.01748205
 -0.06825326  0.00400502 -0.01062862 -0.06856363 -0.05312712  0.05714164
  0.02436721 -0.07539764 -0.04643377  0.03511774  0.0526773   0.03203962
  0.07256488  0.04148532]","[ 0.07323801  0.06892637 -0.04369318 -0.02443815  0.05000149  0.01098393
  0.01464924 -0.07244052 -0.05458358 -0.04073498  0.05657508 -0.05736404
  0.0506376  -0.01931677  0.02054092  0.03008655 -0.00246048  0.04894025
  0.07300884 -0.04490537  0.00168903 -0.01209089 -0.01990833 -0.02946389
 -0.01504053 -0.07416674  0.05231876 -0.05156959 -0.01544074 -0.00355612
 -0.05158349  0.03533669  0.05333401  0.00484031 -0.01279385  0.04388384
  0.05266035 -0.0527284   0.05717299 -0.02488453  0.00696764 -0.07171263
  0.01071158  0.05496643 -0.07449535 -0.00749598  0.0711773  -0.00509244
 -0.07560895  0.01348275]","[ 0.04824881  0.05174514 -0.05871387 -0.00509842  0.02220215 -0.06117293
  0.02599266  0.01506466  0.07177218 -0.06218437 -0.01815296  0.04903985
 -0.00707939 -0.00805327 -0.00704292  0.00268914 -0.04222416 -0.05450507
 -0.02548257 -0.05652671 -0.01741069 -0.02369886  0.0319324  -0.05367293
  0.0036154  -0.05459214 -0.069089   -0.04545578  0.05920727 -0.00455786
 -0.00076926  0.05193625  0.02438702 -0.02564326  0.03423261  0.0171213
  0.07533807  0.00550597 -0.02707935  0.06438679  0.0396437   0.05143877
 -0.00205298  0.05826653 -0.02683228  0.05820461  0.01231179  0.06508442
  0.04329322 -0.07467143]","[ 1.2329400e-02 -2.4672650e-02 -4.1895743e-02  7.9946294e-03
 -1.1010423e-02  7.4164592e-02 -6.0959201e-02 -1.5006959e-04
 -2.8272942e-03  4.4333264e-02  3.8671806e-02 -1.4210768e-02
  1.0783069e-02  7.0113517e-02 -6.4428456e-02  1.8006831e-02
 -2.7455315e-03  5.3063743e-02  6.6195332e-02  7.3239870e-02
 -7.4228190e-02 -6.6662766e-02 -3.6067624e-02  6.9275267e-02
  4.9850427e-02  4.9848758e-02 -5.6391396e-02  5.2331023e-02
 -3.1485785e-02 -1.2366012e-02 -1.7788850e-02  4.4619650e-02
  2.4214387e-05 -3.9115958e-02  6.2200554e-02  5.5304058e-02
 -7.0861921e-02  6.9987960e-02  3.3742324e-02 -6.7392737e-02
 -1.8225774e-02 -7.1022317e-02  6.8322890e-02  1.9290633e-02
  7.3832147e-02 -1.5731953e-02 -6.6346437e-02 -1.7485313e-02
 -1.2582384e-02  4.9473561e-02]","[-0.0581143   0.02653249  0.05071544 -0.05962225 -0.02792108  0.00942291
  0.00248805  0.06917457 -0.05767013  0.06494669  0.02153473 -0.01614818
  0.02071219 -0.0335319   0.06343748  0.03696483  0.04092661 -0.01843209
 -0.06144454  0.05750801  0.04154153 -0.06002688 -0.01611692  0.06994606
 -0.01791775 -0.01248851 -0.01148004 -0.01309332  0.0503272  -0.00826882
 -0.02759654 -0.00480274  0.03467643  0.03929362  0.00313033  0.07366052
  0.03495223 -0.05718199  0.00202071  0.02020325 -0.02962196  0.02570245
  0.01165505 -0.02257531 -0.00432356 -0.01649776 -0.02357739  0.00583692
  0.02281862 -0.068177  ]","[-0.05099317 -0.0382345  -0.05266416  0.02626519  0.07223058 -0.02867017
 -0.05201606 -0.000971    0.06640054 -0.00304493  0.02197298 -0.06410992
  0.05518947 -0.04660784  0.00997487 -0.07218783  0.06855483  0.02660771
  0.03499284  0.04499031  0.05214842 -0.07567731  0.0117237  -0.05996826
 -0.00053295  0.03541352 -0.00200293 -0.05670433  0.00710187  0.06689187
 -0.06652418 -0.02551126  0.06818979  0.05368521 -0.04848395 -0.06985489
 -0.04639336 -0.021901   -0.00322053  0.04988479 -0.01081292  0.04646122
 -0.04452405  0.03398218  0.02898262  0.03188846 -0.00411598  0.02529617
 -0.00015158 -0.04362005]","[ 0.07096794 -0.02563613 -0.07506739  0.0508598   0.05182699 -0.01559412
 -0.04416637 -0.04125234  0.04302014  0.06931072 -0.05132806 -0.04664749
  0.04706186  0.04389751 -0.04641254 -0.05410627 -0.06123969 -0.0441364
 -0.05611011  0.01726118 -0.0022646   0.05770757 -0.02265895 -0.02132036
  0.03805645  0.05324743 -0.06695037  0.01679175 -0.01034223  0.05673108
  0.04046696  0.00100825  0.04779158  0.01404791  0.0112331  -0.07027912
  0.05407547 -0.00562387 -0.01551414  0.04530543  0.05203203  0.00435992
  0.06779846 -0.01412167  0.01774213  0.04591805 -0.05223471  0.03010578
 -0.02851842  0.05087218]","[ 5.59376925e-03  7.29518905e-02 -5.23296520e-02  6.35352060e-02
 -2.89539285e-02  7.29752705e-02  4.57933694e-02 -4.68590111e-02
  6.51402995e-02  2.96928361e-02  4.40880582e-02 -1.40761547e-02
 -4.12400551e-02 -3.31184231e-02  6.25244007e-02 -7.03228265e-03
 -4.51016724e-02 -5.14866412e-02 -1.06242895e-02 -3.87248583e-02
  1.30530521e-02  1.65898502e-02 -9.07100737e-03 -6.82552382e-02
 -3.69427912e-02 -1.79015249e-02 -7.81694800e-03  2.14600042e-02
 -6.74176812e-02  7.08551034e-02 -4.47466150e-02 -2.60511376e-02
 -1.14580840e-02 -1.81712806e-02  2.81259716e-02 -3.85250226e-02
  3.95029709e-02  2.12002695e-02 -5.16806394e-02  3.93324047e-02
  4.53897119e-02 -4.77800779e-02  2.74410471e-02  6.98997006e-02
  2.81525627e-02 -6.67820126e-02 -1.71482712e-02  3.80708277e-02
 -6.54561967e-02 -5.41508198e-05]","[ 0.03591181 -0.00435662  0.0082577   0.05533946 -0.00663766 -0.03208342
 -0.02971193  0.01725259  0.0224499  -0.0685678   0.05335391 -0.0626898
 -0.02999694  0.07303546 -0.05875263 -0.02392005  0.03757983  0.0555423
  0.03783736  0.00661927 -0.05263107  0.05901549  0.00326139  0.0707755
 -0.06969621 -0.04538979  0.06893133 -0.00041913 -0.07104756  0.05289447
 -0.0117984   0.02021201 -0.01514703 -0.03249535  0.05371948 -0.01502808
 -0.00872712 -0.01605275  0.05442617  0.0182781   0.06152349 -0.02888449
 -0.02962847 -0.03095905 -0.01605175  0.0582976  -0.03215102  0.06987282
 -0.05803405 -0.07023371]","[-0.0508534   0.03516377 -0.01409059 -0.07226975 -0.07295893 -0.00317799
  0.05084463  0.02401344 -0.06309459  0.06355882  0.0316711   0.01255116
 -0.02015383 -0.0136391  -0.04212918 -0.03781164 -0.03582703 -0.07158329
 -0.04291961 -0.01509276 -0.04313923  0.02662969  0.01655319  0.01214588
 -0.0424289  -0.06345277  0.05335834 -0.04570544 -0.04563392  0.01494167
 -0.05778715  0.01598707 -0.06516978  0.03677671  0.05464818 -0.01826961
 -0.00448694  0.03900243  0.03497627 -0.04361038  0.07568995 -0.07514263
 -0.04891766  0.02306879 -0.06660486 -0.01150033 -0.03230478  0.01327275
  0.02415746 -0.00952162]","[ 0.05371883  0.06788334  0.04592455 -0.07231423 -0.0601101  -0.00299176
  0.05307912 -0.04682536 -0.06492327 -0.07592523 -0.06376655  0.05068815
  0.06269858  0.03341062 -0.06411273 -0.05735604 -0.01845304  0.06340616
 -0.01906411 -0.06202517  0.01115858 -0.05575947 -0.01382261  0.02997638
  0.04878137  0.07421472 -0.02616998 -0.03980408 -0.06236603 -0.06942744
  0.00424423 -0.06425402 -0.0583969   0.06456489 -0.01639242  0.06299188
  0.00460403  0.05732331  0.0726408   0.00320266 -0.04445231 -0.05646757
 -0.03493486  0.0060619   0.01446674 -0.03160229  0.02488848 -0.03540836
  0.00842711 -0.05798721]","[-0.05776727  0.02856319 -0.00720281 -0.00848032 -0.02805268 -0.02990082
  0.01687615 -0.06796926 -0.07574857  0.06341007 -0.0232049  -0.06419583
 -0.03071441  0.04360542  0.0713009   0.02349544  0.03143952  0.02165806
  0.04144894 -0.05836588 -0.02187138  0.00690154 -0.05101535  0.01500505
  0.03105977 -0.03184929 -0.02263141 -0.04256445 -0.00728218  0.0456502
 -0.0245952   0.03052851  0.07318788  0.00146501 -0.06655443 -0.07335795
 -0.06367972 -0.00050843 -0.06435686 -0.06071719 -0.05045414 -0.03553448
  0.06355218 -0.01889466  0.01168524 -0.06752052  0.0439014   0.0543163
 -0.03596446 -0.05305281]","[-0.00386123 -0.04298292 -0.06737156  0.0171     -0.01151727  0.06247669
  0.04137372  0.02493779  0.0616561   0.05608835 -0.01356418  0.03749493
  0.01626852  0.0630643  -0.06802366  0.06059333  0.0650662   0.04833443
 -0.03337553 -0.024202    0.03085177 -0.03715336 -0.05400059 -0.04483708
  0.03701993 -0.05852975 -0.0313544   0.02971163  0.07013255  0.02012955
 -0.04644428 -0.00430997 -0.03467466  0.00615277 -0.04659041  0.02278934
 -0.06191432  0.07267051  0.06375777  0.02634927 -0.05117657 -0.01646091
  0.02852755 -0.0699009  -0.00222104  0.03376265  0.01938166  0.04582193
  0.01176795  0.02600651]","[-0.01145007  0.07578502 -0.05296475  0.07290635 -0.07550902 -0.06207199
  0.04634763 -0.00432543  0.02710862  0.04389315 -0.02142575 -0.0656393
 -0.03316547 -0.02389082 -0.0321852   0.02051832  0.00572196  0.02923284
 -0.06719722  0.02788739 -0.05343502 -0.0689542  -0.05333281  0.06338712
 -0.01238758  0.06714738  0.05375498  0.06312043 -0.06635423 -0.02087058
 -0.04545395  0.0152421  -0.00998586  0.01511783  0.00903655 -0.02029784
 -0.04705053 -0.04666038  0.05118082  0.04978064 -0.00883983  0.05847434
  0.05688738  0.00322577  0.06123934 -0.04789626 -0.01159998  0.05232931
  0.07150064 -0.01957408]","[ 0.06427143 -0.00491755  0.01801582  0.04158015 -0.0727523  -0.0018732
  0.00709493  0.04359554  0.05970805  0.03716944 -0.02295761 -0.04569887
 -0.06664568  0.06354802  0.00969458 -0.04775409  0.02800817 -0.06663714
  0.06451737  0.04470517 -0.04581009 -0.02128554  0.04679435 -0.07642245
 -0.05858178 -0.0748918  -0.02180076 -0.05380658  0.00356507  0.03870663
  0.04308715  0.06287097 -0.01552399  0.01497481  0.04549982  0.01613986
 -0.03361382 -0.03414992  0.03920215 -0.03238995  0.01950151 -0.02594536
 -0.02636248 -0.01864469 -0.03641658  0.06505183  0.01835053  0.03766219
  0.02509425 -0.01449107]","[-0.03081391  0.00877358  0.05487762 -0.00268149  0.04930761 -0.06338671
  0.07523494  0.04494439  0.06214394 -0.01301562  0.02864545  0.06731208
  0.05904912 -0.06339692 -0.01258607  0.05911001 -0.05282905 -0.00517068
  0.02331143 -0.06683769 -0.0472129  -0.06706595 -0.0752981   0.01452755
 -0.04219326 -0.00482796 -0.07271037  0.07012685  0.02399526  0.06611579
 -0.01712332 -0.05505547 -0.02295692 -0.00522453 -0.00542353  0.05589499
  0.03923675  0.05152745 -0.06366489  0.01057131  0.04297537 -0.05094822
 -0.00968026  0.01409705 -0.00090836 -0.06117439  0.01231799  0.04066882
 -0.02711057 -0.06069802]","[-0.00095795  0.00450395 -0.00695129  0.00302793 -0.00605407 -0.03231863
 -0.06232323 -0.01862242  0.03017358 -0.05290225 -0.04543817  0.01509692
 -0.04890733  0.00778833 -0.01967814 -0.06962989  0.04602038 -0.0537792
  0.06657612  0.04650594 -0.00611184 -0.06927597  0.06246272 -0.05306737
  0.06025604  0.06458523 -0.06731935 -0.0667592   0.04212502  0.02409288
  0.06912682 -0.01959658 -0.05808716 -0.02451061 -0.04791956 -0.01383996
  0.01906703  0.01819849  0.06319318  0.04179867 -0.02186901 -0.05947041
  0.03007965 -0.05272546  0.05686099  0.03695535 -0.04944792 -0.03964901
 -0.0367729   0.01582344]","[-0.04075322  0.02378883 -0.04370933 -0.02343816 -0.04135488 -0.05039576
 -0.04242254 -0.07135247 -0.02427547 -0.01117462  0.00375824 -0.02943129
 -0.07050245 -0.06976169 -0.07124008  0.05277874 -0.00279298  0.04618805
 -0.06613255  0.02531777  0.06514842 -0.03596009 -0.01106383  0.03867561
  0.03670283 -0.02792451 -0.07312227 -0.03067619 -0.01822366 -0.02460499
 -0.01111203  0.00917244 -0.01313436 -0.0034686   0.03178082  0.05077694
 -0.00061565  0.02230364 -0.07373695  0.00308394  0.01879739  0.03783593
 -0.04939815  0.01145097 -0.03274495 -0.03768422  0.06168181  0.04106037
  0.06052103 -0.05913691]","[ 0.02494328 -0.02134645  0.06927472 -0.0731606   0.00784501 -0.07368147
 -0.00836863  0.01494117  0.0554698   0.0369823   0.0455734  -0.03401737
  0.04476874  0.00437355 -0.00940929  0.01964366 -0.02405331 -0.01564037
 -0.05334724  0.02143933 -0.0129151  -0.04686438  0.01732714  0.06156342
 -0.01648674  0.06510559 -0.01404907  0.03095998 -0.06330551 -0.06970935
 -0.05673167  0.07486343 -0.02712879 -0.03901597 -0.01811122  0.03921615
 -0.01056883 -0.04717426 -0.01300728  0.04820122  0.01545577 -0.05405255
  0.02415793 -0.03155621  0.0306369  -0.0717328   0.0720898   0.01119353
  0.0143867   0.06324168]","[-0.03999032  0.05590548  0.06692157  0.0567737   0.07040536 -0.06289746
  0.07035486 -0.06213832 -0.00690019 -0.02304587  0.02930068  0.07554653
  0.02387873  0.03526437  0.0457248   0.06260865  0.04777268  0.00350723
  0.05182221  0.00481351  0.07553368  0.06123104 -0.06307919 -0.07346654
 -0.05709277  0.02654936  0.06674679 -0.00909962 -0.07059556 -0.05102227
  0.01067911 -0.06769684 -0.06885986 -0.04738706  0.00494987 -0.00732352
 -0.01098812 -0.05041029  0.05711826  0.03672143  0.03730296 -0.06389058
  0.02772307  0.00704141 -0.05623167  0.02324995 -0.05457695  0.04232652
 -0.01232546  0.04478496]","[ 0.00820903  0.04100557 -0.00702533  0.04865033  0.02181397  0.06478288
 -0.00015523  0.01418969  0.05507908  0.03755333  0.06102627  0.03047148
 -0.0367126   0.02372775  0.0027062   0.07481238  0.0723753  -0.01384973
 -0.05684743  0.02704416 -0.04929836  0.05855977 -0.04614419 -0.02241007
  0.02033527  0.04872634  0.04171846  0.05586118  0.02386981  0.00910661
  0.01333356  0.01612668 -0.03523157  0.00646673 -0.05858388  0.02506576
 -0.07548851 -0.03408581  0.03824079  0.07223349  0.00330053 -0.01502963
 -0.02579667 -0.05649592 -0.05437487 -0.07589205 -0.02901539 -0.03777168
  0.04244836  0.07513218]","[ 0.03864368 -0.02182465  0.04823732  0.06370985  0.0366903  -0.06781045
 -0.03050559 -0.06943911  0.01322387 -0.00274903 -0.03177063  0.02823558
 -0.0757722  -0.05971009  0.0242042   0.00326975 -0.05399787  0.03792366
  0.01144326  0.01954772 -0.06131712 -0.0128705   0.04355864  0.05038256
 -0.04301161  0.01642768 -0.01215743  0.04228192 -0.03944631  0.04414075
 -0.06034379 -0.00088071  0.05410466  0.02704371  0.01410037  0.00590704
 -0.03275327 -0.04929163  0.03987058 -0.02380192 -0.01999607  0.06354096
 -0.011578   -0.02010406 -0.05277587  0.06930772  0.05811732 -0.04522752
 -0.07312955  0.02048718]","[ 0.03350221  0.0184448  -0.05388465 -0.00032996  0.06447928 -0.01345437
  0.02908789 -0.03739005 -0.00657599 -0.02514007  0.05671871 -0.02511556
  0.03109713  0.03832133  0.02042575 -0.04865271  0.0322651  -0.06031689
 -0.03773804 -0.0443824   0.0745483  -0.04439291  0.04382252 -0.01787076
 -0.06096584  0.04957018  0.05084584 -0.04022168 -0.04065634 -0.00516971
 -0.05624675  0.03733011 -0.0572822  -0.0641698   0.00795764 -0.05145821
 -0.02786014  0.01255749  0.01907172 -0.05704074  0.05743746  0.00912593
 -0.05783122 -0.0640065   0.05144655  0.00822143  0.03661913 -0.04550878
 -0.02875188 -0.05940143]","[-0.07403437 -0.06949719 -0.05410517  0.03835208 -0.01624533 -0.06335962
  0.00782549 -0.03666798  0.06714032 -0.03448651 -0.02355651 -0.02535798
 -0.05800693  0.06141407  0.04698839 -0.0597573   0.00987873 -0.03257776
  0.06981555  0.0273992   0.04573587  0.0330098  -0.06736921  0.04097067
 -0.04187009 -0.02597998 -0.01671837 -0.02894451  0.07251137 -0.0451031
  0.06794968  0.07066231 -0.06204441 -0.03213547  0.0264595   0.00394233
 -0.04857761 -0.07174826 -0.0041811  -0.05210161 -0.02067496  0.00977537
  0.00913204  0.05839679  0.00099735 -0.03551039 -0.0636644  -0.07618756
  0.02105857 -0.01724514]","[ 0.07552827  0.05085329 -0.04763619  0.07310433  0.03653985  0.03714381
 -0.06827808 -0.01495908 -0.02510994  0.04106601  0.05234664 -0.05572757
 -0.02267893  0.07653559  0.0292602  -0.01595847 -0.00575396  0.00452811
 -0.00481259 -0.07596447 -0.06522495  0.00938658  0.02673376 -0.06400071
  0.0653716  -0.0161651   0.05347817  0.00062178 -0.01512314 -0.05918235
 -0.00577556  0.07360502 -0.00015558 -0.06687939  0.01291268  0.01203008
 -0.02384086 -0.01090229  0.01067377  0.04693535  0.05947468 -0.01099177
  0.04334318 -0.05219471  0.01560873  0.0380599   0.05974237  0.04066852
 -0.03677231 -0.05357042]","[ 0.0150617  -0.05023231 -0.03235009  0.04016576 -0.01057582  0.04948304
  0.06710494  0.02293248 -0.05893996 -0.06334763 -0.02957664 -0.03932591
 -0.06420681 -0.04072511 -0.01073268 -0.03118172  0.05523565  0.00909637
 -0.05703247 -0.01600131 -0.0637376  -0.01673334 -0.02036579 -0.00718404
 -0.07587818 -0.00973038 -0.01073689  0.057082   -0.05307676  0.04522608
  0.03147946 -0.03789704 -0.01541289 -0.06388181  0.02600487 -0.06014395
  0.01987752 -0.05622748  0.04685857 -0.02080468 -0.05765679 -0.02081259
  0.06678712 -0.03165664 -0.0765351  -0.01967832  0.04774506 -0.05374862
 -0.00424507 -0.03893291]","[ 5.6976475e-02 -4.6433181e-02  2.1205895e-02  6.0030811e-02
  1.7151833e-03  1.7366379e-02  6.6936314e-03 -6.6548571e-02
  7.5281151e-02 -1.4516640e-02 -2.4030045e-02  3.7547871e-02
 -6.7068428e-02  4.6709910e-02  3.3691771e-02  3.6695883e-02
  5.3674571e-02  5.2758254e-02  1.1743225e-02 -1.8402934e-06
 -2.4081454e-02 -3.3418164e-02 -6.8162546e-02  6.9326587e-02
  6.8084814e-02  2.0062119e-02  2.3645662e-02  5.2817143e-02
 -1.4739435e-02  1.3677441e-02 -1.1513926e-02 -1.8958699e-02
 -7.0857480e-02  2.8085329e-02 -4.2298287e-03 -3.7142113e-03
  5.6071393e-02  1.7209314e-02 -7.5226255e-02 -7.4522823e-02
  2.8830864e-02  5.6475259e-02  6.0618468e-02  6.0056083e-02
 -6.8101436e-03  6.7636594e-03 -4.9301717e-02  3.7844293e-02
 -7.9038143e-03 -7.1258843e-02]","[ 0.04434936 -0.01245499  0.04409727 -0.04317513  0.01788974  0.06639559
 -0.03293587 -0.07089157 -0.00978938 -0.01412961 -0.07268775 -0.05942699
 -0.05163147 -0.04084143  0.04002155 -0.03571218  0.06289182  0.0104261
  0.04958724 -0.04033881  0.02629043  0.02134516  0.01347353  0.02049688
 -0.00037805 -0.0704706  -0.04349121  0.03014187  0.07573841  0.07352189
  0.0647336  -0.05155879 -0.0136545  -0.01131865 -0.0701644   0.06100173
  0.04366248  0.05125048 -0.0192511  -0.03895167  0.04122821 -0.01922535
  0.00647887 -0.02076831  0.01845339  0.00594477 -0.04589449 -0.06039945
  0.03399865  0.0382159 ]","[ 0.01110484  0.03314532 -0.01455891 -0.04481659  0.06794269 -0.0207338
 -0.02821703 -0.04771344  0.0031658  -0.02158958  0.01650468 -0.06258583
  0.05931693  0.0032141  -0.07307686  0.06825475  0.01217277  0.01136033
  0.0342738  -0.03994242 -0.04015797 -0.05307049 -0.05367392  0.05173346
  0.00923794 -0.02694088  0.00854122 -0.00476845 -0.03685723 -0.07067938
  0.03265288  0.00528774 -0.05384076  0.04569495 -0.01773766 -0.07080753
 -0.02201917 -0.01596057  0.0715211  -0.00424821 -0.05680626 -0.04966734
 -0.05699489 -0.05192972  0.02639915  0.00137246  0.03192984  0.04108714
  0.0366376  -0.01943988]","[ 0.03597949  0.02916227 -0.04176807 -0.07013058 -0.0408827  -0.01998585
 -0.03013415 -0.06786481 -0.01266973 -0.01858871 -0.05153418  0.00527363
 -0.06913862 -0.0397004   0.04036542  0.05084153  0.02906306 -0.04233065
  0.01661926  0.03889842  0.01550687  0.01585469  0.05194684 -0.00333074
  0.0212429   0.03080354 -0.00356043 -0.02369474 -0.02652089 -0.04293954
  0.07634994 -0.07159805  0.02999061 -0.03644392  0.02661525 -0.02623679
 -0.06293021 -0.03056879  0.0678056  -0.00647602  0.01912062 -0.05543026
 -0.06862555 -0.01193226 -0.05388737  0.05820759  0.01109526  0.04299557
  0.0504758   0.07297174]","[ 0.04148415 -0.06760458  0.04735182  0.00440071 -0.00897732  0.03515749
 -0.00639052 -0.05555693  0.0252432  -0.01761808  0.02867828  0.05241858
  0.07184777 -0.06365197  0.04940922  0.06190123 -0.05001475 -0.02157644
  0.02262504  0.03914791  0.0322049  -0.00706283  0.00985327  0.01903316
 -0.0329532  -0.07062384  0.03784851 -0.04235817 -0.03116022  0.00416437
 -0.03594456 -0.07381955  0.07219329 -0.01079997 -0.06214811 -0.04098096
  0.04390442 -0.06850722  0.04162382  0.0614923   0.00569583  0.00557963
  0.02561111  0.03908595  0.02289587 -0.07227192  0.07111194  0.01002333
 -0.05831283  0.02970861]","[ 5.7365127e-02  2.3223460e-02 -1.6496230e-02 -6.4911611e-02
  6.6304065e-02  2.1852292e-02  3.6240876e-02  6.9619887e-02
 -1.3261706e-02 -7.6500826e-02 -2.0928163e-02  4.2452887e-03
 -2.4665222e-02 -1.3143040e-02  5.0584026e-02  3.9834306e-02
  5.9919395e-02  3.5715416e-02 -4.5939222e-02  5.5552326e-02
 -7.5959630e-02 -6.7073449e-02 -3.2379236e-02  3.6360353e-02
 -2.8891731e-02  9.9719539e-03  7.1046717e-02 -2.0708576e-02
  5.5929251e-02 -6.2375702e-02 -8.3218366e-03 -4.0029231e-02
 -4.8087116e-02  5.8947437e-02 -6.2493801e-02  3.3875398e-02
 -2.2421367e-02 -6.0223721e-02 -5.1917873e-02  4.5091197e-02
  9.2680901e-03  2.1914236e-02  6.9520660e-02  5.1365532e-02
  4.7503717e-02  3.2063074e-02  2.9294819e-02 -8.4683299e-05
 -5.5782795e-03 -6.6175744e-02]","[ 0.03269743  0.01880224 -0.02258473  0.06327932  0.00392526 -0.05023669
 -0.02055611 -0.02430566 -0.02731114  0.04353375  0.03572268 -0.07070833
 -0.05226362 -0.0200571   0.05166743 -0.01520688  0.0006702  -0.03726602
 -0.05619948 -0.01471047  0.03185011 -0.02272394 -0.04266442  0.01324506
 -0.06730134 -0.02550194 -0.0627801  -0.04310285  0.06375144 -0.04895805
  0.03141103 -0.03447855 -0.06372979  0.07201304  0.01982316 -0.05558518
 -0.0712273   0.00842606 -0.04672288  0.0458047   0.00322358 -0.04229559
 -0.04669026 -0.04018454 -0.03371243  0.01152638 -0.06212206 -0.02195577
  0.03920271  0.03255351]","[-0.02138135 -0.07031778  0.05439911 -0.03021255 -0.0714165  -0.07401709
  0.05156437  0.0498656   0.00221288  0.04437583 -0.02877573 -0.04775029
  0.05341624 -0.01757395 -0.04367641 -0.00753096  0.01820891 -0.04184247
  0.05463172 -0.04092535  0.05219115  0.00984233  0.07443509  0.04916344
  0.07115365 -0.05411435 -0.00302447 -0.02481845 -0.07582834  0.01962041
 -0.07068633 -0.04666806  0.05753154 -0.04211232  0.06374753  0.05161505
 -0.01982186 -0.00049031 -0.07268819  0.03949396  0.05716359  0.04052336
  0.02179625 -0.03291688  0.04642594 -0.00592972 -0.02965647  0.06328133
 -0.04243639  0.0482858 ]","[ 0.06403729 -0.02584299  0.04930731  0.06484986  0.07348175 -0.00083562
 -0.01488575 -0.01798374  0.02386419  0.01467612 -0.04878652  0.05174709
  0.00810421 -0.00118051 -0.0363814   0.05529643  0.07359713  0.04345234
  0.01405364 -0.03126999  0.02141566  0.06736907 -0.01623691 -0.04550591
 -0.03934934 -0.00086365  0.01545637 -0.05283843  0.03043343  0.03463747
 -0.03615439 -0.06049933  0.06314564  0.02669201  0.05826647  0.02485829
 -0.01809552 -0.010921    0.06424678 -0.02596518  0.02604473 -0.06895547
  0.01697783  0.05995125  0.02630082  0.05397234 -0.03931129 -0.021226
 -0.01354609  0.00548787]","[ 0.0319481   0.06322128  0.03073239 -0.0440282   0.02289465 -0.04059674
  0.0156067   0.03898259 -0.00271242  0.0719263   0.05497701 -0.05041435
 -0.01911231 -0.02579529 -0.06083068  0.02337764 -0.0231978   0.00523988
 -0.01547114 -0.02809493  0.00237553 -0.04318977  0.04127239  0.03695349
 -0.0595669  -0.071534    0.03213131  0.01237191  0.01813766 -0.03137941
 -0.0464002  -0.02320516 -0.04667118  0.05601955  0.0269457  -0.01853576
 -0.03651092 -0.01978483  0.07636318  0.06246097  0.07426807 -0.04425749
 -0.04519911  0.01752997 -0.03384286  0.02236252  0.06956386  0.02614012
 -0.01202843 -0.00360852]","[ 0.00166766 -0.04008506  0.06487078 -0.07555052  0.04836335  0.00737637
 -0.06066556  0.02354839  0.04223377 -0.00404306  0.01491366  0.05774375
 -0.01186499 -0.03136564  0.01493223  0.01728429 -0.04355955 -0.02200364
  0.01723099 -0.05301547  0.02805138 -0.00028443 -0.06824082  0.01405865
  0.04021086 -0.02151635  0.0232967  -0.06886059 -0.06876976  0.07053842
  0.07250082 -0.02251736  0.06780706 -0.03330463  0.01023764  0.06526784
  0.07206426  0.02689577  0.01831343  0.01132652 -0.06717877 -0.02045118
  0.02995373  0.030981    0.04677416  0.01398467  0.05048116 -0.06990954
 -0.05011482  0.06020107]","[ 0.02977359 -0.00790533  0.00701914 -0.01359453  0.01619945 -0.02696158
 -0.01523947  0.06343233 -0.04151643  0.05976254 -0.05374204  0.06885903
  0.05486136 -0.06186935  0.04017556 -0.04186224 -0.0629153  -0.00376613
  0.03328212  0.04999105 -0.01613486 -0.04307819 -0.0061798  -0.03240353
  0.05718128 -0.02237887  0.02474623  0.07465883 -0.05727065  0.02297871
  0.02635075  0.07561096  0.00232141 -0.0139856  -0.07120487 -0.02657743
 -0.06333362  0.07532167 -0.05615332 -0.0173899   0.0700765  -0.04741217
  0.07066    -0.06310969 -0.01907643 -0.03618423  0.07243673  0.02097806
  0.01337931  0.05127972]","[ 0.03059711  0.06395861 -0.00754073 -0.00838814 -0.05525876 -0.05725616
 -0.0541937   0.02000511 -0.0260661   0.0447672  -0.05897501  0.03606952
 -0.04216382  0.02893754 -0.01468797 -0.06487444  0.00668027 -0.01561077
  0.0559075   0.06308661 -0.01943565 -0.04476771 -0.00281829 -0.03674596
 -0.03259446 -0.01753028  0.01836165  0.07575861 -0.02053347 -0.01734988
 -0.03245377  0.01512428  0.06974206 -0.03095839 -0.03446968  0.06015196
  0.07487387  0.06321437  0.00937171 -0.03707903  0.03577487 -0.02630175
 -0.04372954 -0.04308392  0.01646978  0.02030762  0.00222761  0.01797517
 -0.00735927 -0.0397054 ]","[-0.0061216   0.01652446 -0.00128441 -0.05347649  0.05537806  0.00282913
 -0.03332567  0.04720144  0.06675508  0.07477874  0.03715737  0.01698842
 -0.03003295  0.04498445 -0.05338649 -0.00338616 -0.06788898 -0.06864811
 -0.05240922  0.02378628  0.02827761  0.07411136 -0.0074579   0.06760182
  0.06130657 -0.06777865 -0.0312906   0.03169847 -0.05366859  0.06925035
 -0.0380812  -0.01682553 -0.052535   -0.01829911 -0.03997572  0.05003052
 -0.04318975 -0.06743677  0.00502095 -0.03104371  0.02419601  0.01055107
 -0.0634046  -0.01680112 -0.02981413 -0.00306768  0.06022537  0.00714304
  0.05484384 -0.07479861]","[-0.03321577 -0.00738662  0.03596213  0.01254411 -0.05393256 -0.04699908
  0.01765984  0.00329325 -0.01084775 -0.06575371  0.03933363  0.03170798
  0.06460702 -0.00116178  0.01845007  0.06781053 -0.06563798 -0.01769218
  0.01223817 -0.04914871 -0.01389378 -0.05101664 -0.02081937  0.05713279
 -0.02727628  0.02014523  0.02999535 -0.03302015  0.05889823  0.07474921
 -0.04534591  0.06319625  0.01437144 -0.01404966 -0.07374706 -0.01366253
 -0.00732531 -0.00984689  0.03167097 -0.00570051  0.04430215 -0.03765225
  0.0214396  -0.03620811  0.01044896  0.06368863 -0.04425503 -0.01456694
  0.06463773  0.01232292]","[-0.0266869   0.05908465  0.06011013 -0.0652692  -0.04526711 -0.00741336
  0.0264146   0.01787472 -0.04652363  0.01655921 -0.0676747  -0.01354697
 -0.04235364  0.01307429  0.00777411 -0.00670734  0.07096349  0.01476096
 -0.07407991  0.01620941 -0.06974389 -0.04062807 -0.00824026 -0.06487934
  0.06779539 -0.03516234  0.0180109  -0.02898627  0.00768927  0.05207061
  0.03164505 -0.00256933 -0.00333089 -0.06317893 -0.00157292  0.01405341
 -0.07052743  0.00248063 -0.04704972  0.04772445 -0.05168409 -0.06046988
 -0.03488347  0.05703013  0.05060711 -0.03037784  0.00217094  0.01491661
 -0.03907344  0.03245209]","[-0.05708023  0.02166229  0.00478887  0.06247916 -0.07185498  0.00701146
  0.02604833 -0.0120745  -0.07320271  0.06176775  0.07276975 -0.06479304
  0.02326628 -0.02073955 -0.04220158  0.0381391  -0.04737762 -0.03433678
 -0.02467157  0.04396378 -0.05157335 -0.04038883  0.04606431 -0.04725533
  0.06491864  0.02613233 -0.0640067   0.03943333  0.02923001 -0.04984652
 -0.03147246 -0.04246871  0.07605114  0.04032465 -0.02976491  0.02972571
 -0.06047143  0.04868168  0.03161646  0.00656961 -0.03856457 -0.02241443
  0.03428964  0.04624444 -0.01123808  0.01201464  0.02191206 -0.0474254
 -0.05513117  0.02839542]","[ 0.03602967  0.01877993 -0.00929406 -0.00306029  0.05283248 -0.05149507
  0.06787791 -0.02589284  0.07562525 -0.06564385 -0.0665457  -0.06027137
  0.0709573  -0.04429795 -0.06438024  0.05673472 -0.06168754  0.0067125
  0.03451545 -0.04912535  0.01013699  0.00888168 -0.02522532  0.03422796
  0.00888544  0.02196831  0.0068421  -0.0609352   0.02705541  0.05862433
  0.07320581  0.03706074  0.01956127 -0.02568535 -0.04383374  0.0099402
 -0.07382876  0.01360066 -0.06232709  0.01988187 -0.00361628  0.05224352
 -0.02913845  0.05191139 -0.05568387 -0.02907487  0.04244285  0.00902644
 -0.02079428  0.04228582]","[ 0.02289011 -0.04423846 -0.01203674  0.00337724  0.01770667 -0.00647124
  0.04147028 -0.03993727  0.01881914 -0.00898895 -0.02190297  0.0706846
  0.06746403 -0.06508946  0.02351718  0.01527922  0.0432936  -0.07261227
 -0.00237852  0.04780918 -0.01541715  0.06438627  0.03931031 -0.06814968
  0.00467873 -0.0254172  -0.02249515 -0.06754029 -0.01332806  0.04851993
 -0.03390143  0.01303288  0.02598999  0.05467439 -0.04943998  0.03499107
  0.06669427  0.04856373  0.02424478 -0.05174712  0.05915477  0.03436328
  0.02052421 -0.03679633 -0.050423    0.04927913  0.01187601 -0.05280857
 -0.05868925 -0.04904651]","[-0.03953245 -0.02259938 -0.06966836 -0.02210201 -0.028536    0.03107618
 -0.04592267 -0.00088698 -0.0243428  -0.04310894  0.06334464 -0.0757257
  0.02287833 -0.01093779 -0.0146272   0.06028716  0.06885309  0.04900236
 -0.07446539 -0.00467584  0.00861052 -0.01255769 -0.04610879 -0.03198564
  0.06426155  0.04060433 -0.07400879  0.07160572  0.00664058  0.05754849
  0.01003189  0.03184451 -0.07199003 -0.03241572  0.0485922   0.04038554
  0.02150408 -0.0710876   0.00562011  0.00723988 -0.07247118 -0.07619247
 -0.03459676  0.04431347  0.07248621  0.02425436 -0.05328422  0.04186343
  0.00182448 -0.04472236]","[-0.06114431  0.0171321  -0.04776022  0.05212102 -0.0267419   0.06531765
 -0.01472778  0.00344626  0.04900949 -0.06205875  0.02679881 -0.04194723
 -0.00611708  0.02254096  0.05382589 -0.07158959  0.01736946  0.01372949
 -0.0253697   0.01602704 -0.06088392 -0.05234465  0.00414541 -0.01616782
  0.04994325  0.06298497  0.02583642  0.04517551 -0.04367915  0.02355142
  0.00421284 -0.00498869  0.0372363   0.02972863  0.05405832 -0.06245635
  0.0075709   0.06894805 -0.01037231 -0.03124167  0.0687088  -0.05160224
  0.00407494 -0.05164792  0.06374379  0.0112956  -0.06138081 -0.05906407
 -0.04214225  0.06081039]","[ 0.02962049  0.02965824 -0.00904332  0.0520841   0.00645553  0.05017308
  0.03249922  0.07531745  0.01297018 -0.01368401 -0.06433403 -0.02483338
  0.04518887  0.0718297  -0.05315205  0.02379508  0.00539408 -0.04998361
 -0.03095106  0.03629177  0.03678297 -0.0655921  -0.02362763  0.0302154
  0.03997272  0.01119083  0.04743341 -0.07083343  0.04098521 -0.05927141
 -0.0218946  -0.00660522 -0.00355294  0.06608815 -0.01447926 -0.04061948
  0.02262783 -0.05417974 -0.05978809  0.04026393  0.05739408 -0.03219325
  0.05605837  0.05243238  0.04244047  0.02511904  0.01745065 -0.03497736
 -0.00049593 -0.06438565]","[ 0.00842833  0.03552958  0.043202    0.03600689 -0.00265083  0.02645264
  0.00140765  0.0275194   0.00015672  0.03617911  0.00494868 -0.06285207
 -0.00526067 -0.04333781 -0.05350636  0.01142614 -0.04285526 -0.00597063
  0.05609883  0.0444674   0.01220182 -0.06020752 -0.01324209  0.00340223
  0.06649456 -0.07622736 -0.03593122 -0.00128185 -0.028988   -0.0164941
 -0.05504507  0.04589086 -0.05213764  0.00024417 -0.05660337  0.01934823
  0.0186699  -0.01712062  0.06417445  0.06412407  0.01860527 -0.04769841
 -0.01329204  0.06657379 -0.05471923  0.07297293 -0.00660919 -0.06507742
  0.05570289  0.01125481]","[-0.01759837 -0.07336337 -0.07509074 -0.03614997  0.06369301 -0.06650405
 -0.02710807 -0.0336952  -0.02809853 -0.0462862   0.05693308  0.0049568
 -0.01169271 -0.01944171  0.05651071  0.06920584  0.00551818 -0.0386931
  0.04184901  0.0523188   0.02269543  0.04626592  0.00374447 -0.04058982
 -0.06510004 -0.05023853  0.04299971  0.07070661  0.07163901 -0.00742508
  0.04951309 -0.07272714 -0.06997483  0.07498062  0.06949545  0.02004582
 -0.05146779  0.05679572 -0.0599025  -0.06408406 -0.0077962  -0.0702954
 -0.03805159 -0.01153979 -0.01757156 -0.01293077 -0.07052641 -0.05702263
 -0.05021886 -0.06321286]","[-0.05855791  0.02903304  0.02829607 -0.02972906 -0.04958717 -0.06737912
  0.03746122  0.04470269 -0.00360666 -0.03434432  0.04455588 -0.06127745
  0.03361914  0.05018695  0.02456204  0.0218735   0.04564983 -0.00964254
 -0.07222874  0.07116992  0.07499132 -0.01953126  0.0649683   0.02186242
  0.03128031 -0.02682173 -0.06730548  0.01298516 -0.0324105   0.05496199
 -0.00470749  0.02375034 -0.03620302  0.06440911 -0.05055626  0.04925028
 -0.02464049 -0.05996335  0.00194886  0.02110729  0.02987874  0.02971213
 -0.07353295  0.05742676  0.00659665  0.07424352  0.06481654 -0.04905561
  0.05362179  0.0037967 ]","[ 0.01558726  0.02793767  0.00651129 -0.02618347  0.07136772  0.05532018
  0.05842905  0.02344925  0.01704948  0.04508711  0.03348266 -0.03724399
 -0.04384922  0.02973177  0.02998447 -0.04856423  0.00666618  0.00356421
  0.00938653  0.04049061 -0.07036822 -0.05292022 -0.00067403  0.05957969
 -0.01067079 -0.0057666  -0.02232756 -0.05641711 -0.07406273 -0.00685754
  0.07629237  0.06448489  0.03524265 -0.04543342 -0.02792128  0.00890283
  0.06642158  0.04201105 -0.03134079  0.05990759 -0.02885976  0.0057136
 -0.00717814 -0.02835416 -0.01784634 -0.03529256  0.02196758  0.00976478
  0.06265187  0.06814054]","[ 0.03787404 -0.05796401  0.01247708  0.06893175 -0.0273324  -0.07006089
 -0.0496655   0.04599744 -0.03213314  0.06461813  0.01990177 -0.06284356
 -0.03381319  0.0316923  -0.06448755 -0.01626949  0.0314099   0.00406797
 -0.01122746 -0.01677365 -0.00371455  0.07169618 -0.03151135  0.0559789
  0.04712413 -0.01611254  0.02513186  0.03167073  0.0367608  -0.06550879
  0.072177   -0.05569848 -0.0559865  -0.02280081  0.03501298  0.06406156
 -0.03766965 -0.06052631 -0.0055096  -0.07099544  0.0301021  -0.05183136
  0.03845841  0.04242184  0.01934986  0.03297802 -0.0427581   0.01340893
  0.06984854  0.04691217]","[-0.03164494  0.03465322 -0.04507404  0.05106599 -0.03871088 -0.04598616
 -0.04485168 -0.06582558  0.01614625  0.00786655 -0.05062076 -0.01726659
 -0.05660664 -0.05486441  0.04835572  0.0668821   0.05353565 -0.04547109
 -0.03029785 -0.01462999  0.03920876 -0.01901009 -0.01012234  0.0479892
 -0.00051478  0.04574323 -0.06783614 -0.01842614  0.03321553  0.01328257
  0.00230618  0.04848947 -0.04514224  0.01378191 -0.00704236 -0.03360269
  0.00576582  0.04212853 -0.02415062 -0.07450875  0.0326613  -0.03298379
 -0.05640738 -0.00517533 -0.00210747 -0.01404628  0.07095437 -0.07128634
 -0.05546457 -0.0337252 ]","[ 0.07271815 -0.06433816 -0.02522136 -0.02826157  0.0706894  -0.01261859
  0.02649929 -0.00332536 -0.07167102 -0.05967071 -0.00085535 -0.05569698
  0.05799102 -0.05006821  0.00934669 -0.03741047 -0.06158821 -0.02889074
  0.0677475  -0.00891072 -0.05268974 -0.0176217  -0.00011536  0.05385565
 -0.02343668  0.03793209  0.07079459  0.05366176 -0.06484368  0.03073819
 -0.01932549 -0.01512232 -0.01092266 -0.07076667 -0.05105769  0.07105226
  0.02612735  0.01929222  0.01865741  0.0120555  -0.05993665  0.02654044
  0.05140521  0.01249573  0.0397696  -0.00941617  0.05430105 -0.0245288
 -0.01352847 -0.07211366]","[ 0.0598023   0.01825351  0.05963101 -0.06637602  0.04810884  0.05428723
  0.00077534  0.03505177  0.059446    0.03083568 -0.00756584 -0.00876135
  0.0394726  -0.04169392  0.04336152  0.02123845  0.02718865  0.01203338
  0.05649263 -0.00264711  0.04720445 -0.06696294 -0.03697593  0.06411668
 -0.06303267 -0.05155358  0.01143607 -0.03452114 -0.00763535  0.07585696
 -0.04960673 -0.0402648  -0.06925673 -0.07097451 -0.00414416 -0.03757182
  0.00076554  0.00143605 -0.00792646  0.00831474  0.0613069   0.02627614
  0.02641665 -0.07154575 -0.00747032  0.05593153 -0.04158252  0.03814378
  0.05675714 -0.07397267]","[-0.05509651  0.00956491  0.05822439  0.04652122 -0.05190817  0.06516588
  0.06970306 -0.02189412  0.0652731   0.01731316  0.04327122 -0.05209193
 -0.0670191   0.07571609  0.02635938  0.03685626 -0.06789793  0.03631199
 -0.06765835  0.03477038 -0.00709572 -0.01442813  0.0345974  -0.03515753
 -0.06467932 -0.05560838  0.04078501 -0.05155736 -0.07125513 -0.02766174
 -0.02943976  0.05070756  0.05432852  0.00789389  0.05920177  0.02263913
  0.01347337 -0.03399494  0.0243317  -0.01942768 -0.04912996 -0.0419839
  0.00996519  0.04868131  0.05830576 -0.03542078  0.03561965 -0.07285374
  0.01632898 -0.01255941]","[ 0.01246916 -0.01091529  0.05409116  0.04550076 -0.05213273 -0.04246044
  0.03139729 -0.03603278 -0.04047408 -0.05599158 -0.05549141  0.04783069
  0.01764509  0.04170723  0.06504562 -0.04556418 -0.02228011  0.00491136
  0.03118579  0.04397173 -0.07489297 -0.03239973  0.07229548 -0.00042275
  0.04043214 -0.06207019  0.06137928 -0.05575341 -0.01560343 -0.00594762
  0.02249601  0.05579983  0.0517138  -0.02589875 -0.0448438  -0.05858541
 -0.07619125 -0.03151334  0.00648779 -0.00488698  0.07065057 -0.03815233
 -0.01186576  0.06908437 -0.04632912 -0.05169305  0.051703   -0.06008444
 -0.04521539  0.03722454]","[-6.5546677e-02 -3.9813370e-03 -3.1209476e-02 -7.3685668e-02
 -1.2307279e-02  7.6966062e-03  4.3466918e-02 -7.6183856e-02
  3.3101343e-02 -7.3183700e-02  4.5564078e-02 -2.8366290e-02
  4.5853429e-02 -3.3085242e-02  4.9847044e-02 -3.0399956e-02
  1.9311346e-02 -6.2357981e-02 -3.2865476e-02 -7.6784268e-03
 -6.8382367e-02 -3.3499867e-02  5.4552712e-02  6.0207732e-02
 -7.0858181e-02 -1.1595346e-02  1.2420610e-02 -7.2527424e-02
 -1.7270856e-02  6.5878473e-02 -1.1554770e-02 -3.8884018e-02
  3.6696650e-02 -7.5809658e-05  2.4930283e-02 -5.3549688e-02
 -7.2771981e-03 -4.7553226e-02  5.7792626e-02  2.5039352e-02
  2.1497205e-02 -3.2772236e-02  3.2024384e-02 -6.2874347e-02
 -1.2373440e-02  5.4038242e-03 -5.6207035e-02 -3.1408932e-02
  3.0421361e-02 -7.3772408e-02]","[ 0.03812373  0.0621944   0.00400605  0.06970605 -0.07162492 -0.0694314
  0.01617245 -0.05993342  0.02073955  0.06938422  0.03527381 -0.05426666
  0.0155608  -0.05342325 -0.02439182 -0.07139771 -0.01147249  0.04668512
 -0.01356822  0.07634949  0.04022641  0.06910924 -0.0128619  -0.0431707
 -0.00680773 -0.04610888  0.01934645  0.033768   -0.0383187   0.05980805
  0.01623005  0.00845687 -0.0481661  -0.05485674  0.0569885   0.02324577
 -0.00961108 -0.01547712 -0.07336266 -0.02733308  0.00960093  0.04396166
 -0.05179801 -0.01613672 -0.01145173 -0.01191989  0.03559206  0.06499851
 -0.02033386 -0.02408397]","[-0.06688872 -0.02526067 -0.02698381  0.03989931 -0.06468143  0.06610692
  0.03609498  0.06477991 -0.07474248 -0.0411651  -0.04922503 -0.03253841
 -0.01794208 -0.02898103 -0.02511282 -0.04870496  0.05549588  0.00292277
 -0.00555687 -0.05977742 -0.02423594 -0.06762462  0.01872855 -0.00966968
  0.01496663 -0.04914168 -0.04075577  0.01960339 -0.0535145   0.06345407
  0.03024912 -0.02495293 -0.07451729  0.0368044   0.04484347 -0.05152493
  0.06453266  0.03372619  0.03736474  0.01777363  0.07165246  0.0218337
 -0.03308767 -0.01282861  0.06935445 -0.06970904  0.07460336  0.06274078
  0.06418306 -0.04882882]","[ 0.0242468   0.00882933  0.07447589 -0.06129615 -0.02627019 -0.04731121
  0.04563474  0.02287757  0.04963485  0.06697736  0.00993827 -0.02733729
  0.02065074 -0.04396629  0.02787471  0.04191428  0.00958183  0.05401386
  0.05739269  0.06469271 -0.01310766 -0.0503446  -0.02973529 -0.03188606
 -0.07564756 -0.00585228  0.02415152 -0.02422392 -0.06445692 -0.00503576
 -0.04249703 -0.01462714  0.05132095 -0.05431528 -0.04323105 -0.07462808
 -0.04705894  0.04123458 -0.01028126  0.06000634 -0.00983247  0.03776038
  0.06949443 -0.05544455  0.02924293 -0.00423633  0.05848172 -0.02274073
 -0.00618971 -0.05740152]","[-0.0435825   0.0585049   0.03661783  0.06068098  0.03582002 -0.05539062
 -0.05919462  0.02226573  0.00055893 -0.04547426 -0.00105651 -0.01414335
 -0.05233777  0.00582989  0.04615805 -0.04317086  0.0491493   0.01534814
  0.04620308 -0.00827546  0.02700125  0.0356359   0.00444011 -0.01353817
  0.00956746 -0.00680531  0.07238968  0.06559207  0.00964506  0.07409374
 -0.05452998  0.00971918  0.04477505  0.01982024  0.00083947 -0.03652837
 -0.02507913 -0.01330237  0.07183453 -0.06732446 -0.04659743 -0.04101427
 -0.05959468 -0.04256593  0.0604272   0.03985812 -0.00235222  0.00376799
 -0.01143018 -0.00602261]","[ 0.02210122  0.05066273  0.06224532  0.05796549  0.00717034 -0.07261179
  0.00577472  0.03307924 -0.00056744  0.05487353  0.03805491 -0.00487621
 -0.00197585  0.01743037 -0.04969619  0.00234667  0.07204071  0.03601255
  0.00342241 -0.02626808 -0.03665942 -0.07602577 -0.0295101   0.06149177
  0.02587727  0.0703352   0.05148651  0.01233097  0.02469213 -0.05411791
  0.03058586 -0.03913585 -0.03299012 -0.04142374 -0.01751413  0.03011011
  0.07189637 -0.02538827  0.05052636 -0.07332235  0.03528439  0.00398561
 -0.00919551  0.02177928  0.07141059  0.00551661 -0.07327026 -0.06204093
 -0.03023466  0.04374871]","[ 0.07645137  0.01168749  0.03125092  0.01769583 -0.05020408 -0.05686342
  0.06173598 -0.04645306  0.0454384  -0.06825204  0.03364453 -0.04862686
  0.01689317  0.06959786  0.04375094 -0.04855872 -0.0402995   0.02052013
  0.0216167   0.01264033  0.01804614 -0.03339449  0.01213367  0.01801692
 -0.05032978  0.01636859  0.07241919  0.04140522 -0.06399743 -0.07586066
 -0.06450111  0.06203643 -0.04933245 -0.05580156  0.0274657  -0.03671242
  0.06801604  0.03583291 -0.05390095  0.00468807  0.06347295  0.05483178
  0.02998561  0.00630781  0.03084321 -0.05376867 -0.064272    0.04789518
  0.0143383   0.05523307]","[ 0.03650039  0.03070406  0.00454539  0.04103594  0.05184642  0.01070176
 -0.04814718 -0.01907632  0.04589917 -0.00674198  0.04422636 -0.06754786
 -0.01444333 -0.02383329  0.05987521 -0.06622604 -0.06334789 -0.04832475
  0.02915094 -0.05416632  0.01144416  0.07299473 -0.01987615 -0.05304217
  0.02238498  0.04307353 -0.06547751  0.04397845 -0.03220703  0.02707212
  0.04972862  0.01316801 -0.04519301 -0.05476252  0.06052919 -0.05527452
 -0.07257774 -0.0341386   0.05657343 -0.06315093  0.03220437 -0.05486625
 -0.0486342   0.04977456 -0.05562712 -0.04712707 -0.05177032 -0.00368291
 -0.03618543  0.04544771]","[-0.01779182 -0.04497555  0.02281474  0.0208666  -0.0735627   0.05554523
  0.07200351 -0.03024045 -0.00975931  0.01365215  0.04139301 -0.02191623
 -0.00580025  0.06771011  0.01797514 -0.04081802  0.03710759 -0.02762271
  0.07109211 -0.01542429  0.04319368 -0.04541055  0.01162334  0.00188807
  0.03728277 -0.00012811  0.04852585 -0.06211443 -0.00613686  0.01591708
 -0.07512905  0.02712359 -0.06550219  0.00351849  0.067582    0.01555954
 -0.07606316 -0.07103269 -0.07172579  0.02007869 -0.01842713 -0.03642417
 -0.06943715 -0.03570463  0.06887078  0.01277045  0.00571937 -0.02310259
  0.03059272  0.06139369]","[ 0.07642876  0.00279261  0.01350257  0.05934673  0.05486483 -0.00372888
  0.01776821  0.05730677  0.016761    0.05324585  0.03642172  0.02352983
  0.03612562  0.01665045 -0.0614462  -0.03728655  0.0725682  -0.00301572
 -0.07220675  0.02011406  0.00390981 -0.01701782 -0.05393137  0.02658428
 -0.0003143  -0.01198633 -0.03897576  0.00168852  0.02211875 -0.04857273
 -0.01061475 -0.02395044 -0.03660803 -0.04365723  0.05440225  0.06031206
 -0.05886294  0.01183409  0.03671143  0.04984013 -0.016985   -0.02768001
  0.05794079 -0.04725431 -0.07382132 -0.07044581  0.03815536  0.02422227
 -0.05933576 -0.04523303]","[ 0.05352461 -0.05201299 -0.02979584 -0.01093323 -0.03516921 -0.03824165
  0.05097532 -0.07184458  0.05495768 -0.04296622 -0.04722077  0.0568874
 -0.04137863 -0.02587057 -0.0296129  -0.00198999 -0.02295124  0.0727252
  0.01504653 -0.07066721  0.05861538  0.0383701  -0.07333455 -0.03599085
  0.01367896  0.01660912  0.05454198  0.03253309 -0.06710353  0.04592125
 -0.07333604  0.06438931 -0.03087743 -0.02618962  0.02312905 -0.05838533
  0.02275215 -0.02647735  0.03978236 -0.00451875  0.02328557 -0.05184717
 -0.02681306  0.00019619  0.04710977  0.07535513 -0.00656284  0.01869013
 -0.03706901 -0.01066535]","[-0.02560247  0.05217297 -0.02554302  0.07160797 -0.05275331  0.0540346
 -0.04267284  0.02527602  0.00736779  0.03694708 -0.0708212  -0.02188502
 -0.03481753  0.06809259  0.06312088  0.02928241  0.06559264 -0.07160435
 -0.0486688   0.0474809  -0.07418965 -0.02768919 -0.0384224   0.06631667
 -0.06852147  0.01896656  0.07264487  0.05739281 -0.01217307  0.0378575
 -0.07598825 -0.07324701  0.00344779  0.04061411 -0.01106098 -0.01083749
 -0.06818393 -0.0398952   0.05399477  0.03963322  0.01561942  0.00204925
  0.06119826  0.03797998  0.03886442  0.05702301 -0.06504785  0.06777681
  0.00113912  0.02215072]","[ 0.01513691  0.03104132 -0.04862145  0.05852266  0.0373008  -0.01784265
 -0.03344309  0.05860395  0.02675245  0.03918517  0.01319657 -0.01254079
  0.07049827  0.02456496  0.0188275  -0.05096879  0.06935405 -0.03738306
  0.05816608  0.02525725  0.06913061  0.02312555 -0.04815796  0.07525162
 -0.00064242 -0.0510263   0.01590188 -0.0092354  -0.05903682  0.06752623
 -0.04311378 -0.03099361  0.00592687  0.05467469  0.06581903 -0.00619719
  0.02840679 -0.04064052 -0.05021483  0.03918226 -0.04100616  0.0733686
  0.0695508   0.03625704  0.02125957  0.01688917 -0.06406136  0.02109063
  0.02440087 -0.03290442]","[ 0.01936152 -0.02908131 -0.06849638  0.06969415 -0.05521552 -0.04920548
  0.00160311 -0.02896778  0.01379417 -0.00096685  0.06960366  0.0578469
 -0.07573762 -0.01385169  0.05806751 -0.00697556  0.00886452  0.00754728
 -0.04198493 -0.06009679  0.01996857 -0.0135336  -0.0679473   0.06716762
  0.03237205  0.05680674 -0.07215615  0.03300186  0.04080014  0.01106028
 -0.06262887 -0.0020469  -0.05408949  0.05682512 -0.02646196 -0.0017959
  0.00110913 -0.04211697  0.07594786  0.03636169 -0.00252301  0.015235
  0.05075728  0.04805052  0.02320251  0.05853891  0.07124419 -0.00497311
  0.04304101 -0.00683452]","[-0.05121995  0.05631731 -0.03279421  0.05014985 -0.00176108  0.0697541
 -0.0130776   0.03446871  0.03283434 -0.07248819  0.06153641  0.02561498
 -0.02013213 -0.06871868  0.0161999   0.00939721 -0.00728077 -0.04116658
 -0.00994793  0.04186627 -0.06025838  0.02603593 -0.04264986  0.06212383
 -0.05921493 -0.04455656  0.06088655 -0.04552779  0.01524591  0.03006222
  0.060914   -0.06796759  0.06596585  0.05755491  0.03706532 -0.02419318
 -0.01328549  0.05995566 -0.07053634 -0.04269727  0.01012851 -0.07417995
 -0.04134598  0.0297471   0.06466826 -0.01497853 -0.03008129  0.00775324
  0.04137428  0.00420638]","[ 0.0335694   0.04285943 -0.0207534   0.02352512  0.03222793  0.06722029
  0.0281253  -0.06833743 -0.04700193 -0.04820653  0.00943955  0.02166037
  0.0180626   0.05951724 -0.02208953  0.07016972  0.06190876 -0.01617264
  0.03699169  0.07269115 -0.06756996 -0.03218447  0.01468598  0.02230902
 -0.02117943  0.03537204 -0.00388438  0.01861304  0.04564556 -0.00911685
  0.06625163 -0.05901423 -0.00344701 -0.02488244 -0.05906289 -0.05051079
  0.07036933  0.07641435  0.00634095  0.05334454  0.03936394 -0.01581466
  0.02859856 -0.04929572  0.02321983 -0.01890973 -0.00098205  0.05291804
  0.0181765  -0.04888642]","[-0.04701928  0.07577188 -0.02894318 -0.06528676 -0.06439386 -0.01005013
  0.06527198 -0.02662886 -0.01856857 -0.06979284 -0.07060994 -0.01993605
  0.02197957 -0.02925345 -0.03276172 -0.03262322  0.00988133  0.00827997
 -0.04737938 -0.02587104  0.06895293  0.02589658  0.00525306  0.06073093
  0.02677928  0.02136376 -0.0727118  -0.00447465 -0.06317351 -0.03844208
 -0.04689404  0.01558308  0.02924409  0.04197942  0.0193298  -0.04524307
 -0.02652316  0.07390901  0.06365288 -0.03153123  0.05622008  0.02977217
 -0.0197879  -0.03448229 -0.04670688 -0.02304691  0.01073775  0.06252632
 -0.01713774 -0.01904495]","[-0.00426044 -0.06763417 -0.03490951  0.06815121 -0.04128584 -0.05591021
 -0.05604154  0.04145595  0.01710393 -0.01909368  0.05818661  0.07013843
  0.02566724 -0.05889761 -0.03506195 -0.0190371   0.06951634  0.01225005
 -0.03553025 -0.00819511  0.03070346  0.04863482  0.04411285 -0.02529945
  0.0396575  -0.01229315  0.00978522  0.04780944 -0.01527415  0.01280421
 -0.04907341 -0.02992549 -0.03676277  0.05583744 -0.01267906 -0.01837727
  0.0651735  -0.00203496 -0.02594357 -0.01156123  0.06781324 -0.06643759
 -0.005358   -0.04399378 -0.03703076  0.04485059  0.0628523  -0.00163952
 -0.03015008  0.05885894]","[ 0.04701622 -0.06213611 -0.04318616  0.03642513 -0.05776251 -0.02672657
 -0.00462133  0.05266441  0.01223022  0.00239374 -0.06406813 -0.01650254
 -0.06899146  0.02540193 -0.06071739  0.00674663 -0.00731074  0.03878178
  0.03413261 -0.03383222  0.02447777  0.04610138 -0.05883762 -0.07061859
  0.04250202  0.04032425 -0.01175967 -0.06769614  0.03319584  0.04250446
 -0.02926378  0.05860584  0.07334448  0.05144773  0.03721627  0.00590058
  0.01540787  0.02721395  0.07382017  0.0366163  -0.07429989 -0.05268403
  0.01293097  0.03722822  0.0622785   0.02614678  0.00100905 -0.01342019
  0.02675616 -0.0250954 ]","[-0.00461567  0.03134783 -0.05448691 -0.0211032  -0.03347534  0.0204419
  0.05745286 -0.04942863 -0.02137629 -0.02350389  0.00285003  0.02011987
 -0.03559646 -0.00528757  0.04227655  0.03856039  0.04349604 -0.04727791
  0.02429252  0.00664534 -0.01544115 -0.01179863  0.07054981 -0.03120847
  0.03158988  0.04861438 -0.0060977   0.00290655 -0.0557257   0.01882723
  0.0631495   0.06505714 -0.0087527   0.04128493  0.03535914  0.07442866
  0.04281993  0.07555588  0.05052759  0.02929243  0.0439965   0.04103637
  0.01450139  0.07079203 -0.03147046  0.01577336 -0.04379907 -0.02661121
  0.03337626  0.06815981]","[ 0.06489944 -0.01772525 -0.01501505  0.06115822  0.0088078  -0.05264817
 -0.02205848 -0.06502777  0.02361529 -0.07245846  0.05848014  0.04356324
 -0.02848583  0.04421185 -0.04594482  0.05543154 -0.03896114  0.05817027
 -0.07021325 -0.02551644 -0.01562502  0.03330485  0.07046951  0.06474779
 -0.03510376 -0.04625247 -0.07553342 -0.04430765 -0.05076943  0.05518331
  0.0652597  -0.03988606  0.0251729  -0.05986233  0.00483314 -0.05690214
 -0.04978416  0.06940446  0.074467    0.05083049  0.07068809 -0.00037763
 -0.05260061 -0.06461339 -0.05675092  0.06432541  0.06657297  0.05297668
 -0.04798537  0.03560644]","[ 0.0342207  -0.0008446   0.03967903  0.00594903 -0.0566381   0.06210168
 -0.02653841  0.05676224  0.04006613 -0.02873186 -0.00108776  0.00992553
 -0.05186922 -0.0307502  -0.01171616  0.02681808  0.06123625  0.03715666
 -0.03256451  0.06031314 -0.00479195  0.05806249  0.07373949 -0.02969623
 -0.0081902   0.058947   -0.02023634  0.02079257 -0.01179732 -0.05142901
 -0.04031231  0.06525209  0.01733362  0.02502187  0.00624784  0.04169319
  0.00106831  0.03476484  0.0286157   0.00634911  0.047185    0.06497741
 -0.00710691 -0.01126098  0.01647314 -0.0107906  -0.01818959  0.05307958
 -0.06923501  0.07478874]","[ 0.01100624  0.04131908  0.05325825 -0.03701187 -0.03556414 -0.02581029
 -0.05203093  0.05768163  0.0601944   0.01031268 -0.04797338  0.03399804
  0.00799598  0.06450028  0.03118159  0.05359969 -0.0276443   0.06391943
  0.06200313  0.05137628  0.03824552  0.04765593 -0.01783843 -0.05616751
  0.0104617   0.04678289 -0.07303777 -0.02482739  0.06983326  0.01196527
  0.01205973 -0.05557144  0.06342839 -0.07512825  0.03572688  0.0424302
  0.05096138 -0.02262652 -0.04697236 -0.03606883 -0.06502334 -0.01450503
 -0.02337928 -0.06258003  0.02473618  0.0715187  -0.03024156  0.00593092
 -0.04729853  0.01074943]","[ 0.05707284 -0.00480268 -0.02480918 -0.03085997  0.00662888  0.00364517
  0.06257791 -0.01244906 -0.0399945   0.03400589  0.02091291  0.05120126
 -0.06069342  0.05017843 -0.0316783   0.04710042 -0.00698254  0.02337249
  0.04749627  0.00262539 -0.04522077 -0.04919961  0.03433561 -0.07589704
 -0.01608317  0.06642563  0.02783277  0.04355417  0.06357662 -0.00173077
  0.06041922  0.01732393 -0.01678568  0.06882512  0.0043803   0.01467622
  0.04806866 -0.02691188 -0.04085501  0.03353146 -0.05501826  0.04449859
 -0.00883576  0.07521249 -0.01018647 -0.01169722 -0.07569137 -0.00761914
 -0.03013214  0.0282602 ]","[-0.06698027 -0.07643709  0.03635087 -0.06712531  0.00708588  0.04840109
 -0.00820901  0.06516337  0.02352516  0.01673593  0.05630488  0.01298901
 -0.01619125  0.01196073  0.0366741  -0.0319026   0.02995078 -0.07303872
  0.04685385 -0.00557872 -0.07641229  0.0367141   0.00119279 -0.0379579
 -0.0568536  -0.04043608  0.06510625  0.00521979  0.01856581 -0.00096741
 -0.06861938 -0.02362007 -0.04209389 -0.04113039  0.05657472 -0.02923177
  0.02638564 -0.04288236 -0.03625631  0.00889969  0.01491575  0.00195256
  0.06770369  0.00292812 -0.06339344  0.0596587  -0.04409222  0.01646433
  0.07295703 -0.00680301]","[-0.01656711 -0.03768152 -0.00113616  0.05926747 -0.06892923 -0.01933943
 -0.05138481 -0.03455031 -0.03235684 -0.00160556  0.01297921 -0.06180049
  0.03620549 -0.0692535   0.02420924 -0.06901999 -0.00667527 -0.04387431
  0.02963097  0.02117326  0.06148877  0.04434754  0.00624143 -0.04677731
 -0.0358572  -0.07612348  0.00803097  0.05305911  0.03996369  0.04762764
 -0.07246976  0.03575575  0.06806921 -0.0348401  -0.06154505 -0.0663503
 -0.03551026  0.05432896 -0.0307305  -0.03506462 -0.00043368 -0.02676079
 -0.01830984 -0.03549829 -0.03084466  0.07573105  0.0122771   0.01686492
 -0.02660654  0.07586242]","[-0.04206129  0.02518827 -0.05303679 -0.06993707 -0.00073013  0.05773223
  0.06252375 -0.01944835 -0.07533267  0.06596573 -0.0573795  -0.0617629
